<?xml version="1.0"?>
<opencv_storage>
<cascade>
  <stageType>BOOST</stageType>
  <featureType>HAAR</featureType>
  <height>24</height>
  <width>24</width>
  <stageParams>
    <boostType>GAB</boostType>
    <minHitRate>9.9500000476837158e-01</minHitRate>
    <maxFalseAlarm>2.0000000298023224e-01</maxFalseAlarm>
    <weightTrimRate>9.4999999999999996e-01</weightTrimRate>
    <maxDepth>1</maxDepth>
    <maxWeakCount>100</maxWeakCount></stageParams>
  <featureParams>
    <maxCatCount>0</maxCatCount>
    <featSize>1</featSize>
    <mode>BASIC</mode></featureParams>
  <stageNum>10</stageNum>
  <stages>
    <!-- stage 0 -->
    <_>
      <maxWeakCount>5</maxWeakCount>
      <stageThreshold>-2.3178133964538574e+00</stageThreshold>
      <weakClassifiers>
        <_>
          <internalNodes>
            0 -1 109 -2.9440999031066895e-01</internalNodes>
          <leafValues>
            8.7618046998977661e-01 -9.2376840114593506e-01</leafValues></_>
        <_>
          <internalNodes>
            0 -1 23 6.0102857649326324e-02</internalNodes>
          <leafValues>
            -8.4460669755935669e-01 5.9635013341903687e-01</leafValues></_>
        <_>
          <internalNodes>
            0 -1 138 -1.1436691880226135e-01</internalNodes>
          <leafValues>
            3.8090747594833374e-01 -7.6838916540145874e-01</leafValues></_>
        <_>
          <internalNodes>
            0 -1 6 -1.8222050275653601e-03</internalNodes>
          <leafValues>
            4.0132436156272888e-01 -5.5291152000427246e-01</leafValues></_>
        <_>
          <internalNodes>
            0 -1 17 1.5751427412033081e-01</internalNodes>
          <leafValues>
            -6.6909444332122803e-01 3.0108493566513062e-01</leafValues></_></weakClassifiers></_>
    <!-- stage 1 -->
    <_>
      <maxWeakCount>12</maxWeakCount>
      <stageThreshold>-1.4321691989898682e+00</stageThreshold>
      <weakClassifiers>
        <_>
          <internalNodes>
            0 -1 134 -2.4874186515808105e-01</internalNodes>
          <leafValues>
            7.8504675626754761e-01 -8.3599722385406494e-01</leafValues></_>
        <_>
          <internalNodes>
            0 -1 72 2.4837765097618103e-01</internalNodes>
          <leafValues>
            -7.3377138376235962e-01 3.8782268762588501e-01</leafValues></_>
        <_>
          <internalNodes>
            0 -1 181 -2.6011932641267776e-03</internalNodes>
          <leafValues>
            2.3722673952579498e-01 -7.4328792095184326e-01</leafValues></_>
        <_>
          <internalNodes>
            0 -1 115 6.5848166123032570e-03</internalNodes>
          <leafValues>
            -5.7063865661621094e-01 3.2267251610755920e-01</leafValues></_>
        <_>
          <internalNodes>
            0 -1 229 2.0604779943823814e-02</internalNodes>
          <leafValues>
            -4.5286664366722107e-01 4.3639075756072998e-01</leafValues></_>
        <_>
          <internalNodes>
            0 -1 9 -9.7959199920296669e-03</internalNodes>
          <leafValues>
            3.7484401464462280e-01 -4.2677834630012512e-01</leafValues></_>
        <_>
          <internalNodes>
            0 -1 68 -4.1940426453948021e-03</internalNodes>
          <leafValues>
            -6.7820304632186890e-01 2.4800305068492889e-01</leafValues></_>
        <_>
          <internalNodes>
            0 -1 257 2.2441556211560965e-04</internalNodes>
          <leafValues>
            1.0936325788497925e-01 -8.1121009588241577e-01</leafValues></_>
        <_>
          <internalNodes>
            0 -1 258 2.9469473520293832e-04</internalNodes>
          <leafValues>
            9.8944425582885742e-02 -9.0061938762664795e-01</leafValues></_>
        <_>
          <internalNodes>
            0 -1 156 3.3689336851239204e-04</internalNodes>
          <leafValues>
            1.8087892234325409e-01 -6.2300789356231689e-01</leafValues></_>
        <_>
          <internalNodes>
            0 -1 178 1.4842321979813278e-04</internalNodes>
          <leafValues>
            -6.3310050964355469e-01 1.5554019808769226e-01</leafValues></_>
        <_>
          <internalNodes>
            0 -1 78 -1.7401552200317383e-01</internalNodes>
          <leafValues>
            8.0467653274536133e-01 -1.5649245679378510e-01</leafValues></_></weakClassifiers></_>
    <!-- stage 2 -->
    <_>
      <maxWeakCount>21</maxWeakCount>
      <stageThreshold>-1.5869344472885132e+00</stageThreshold>
      <weakClassifiers>
        <_>
          <internalNodes>
            0 -1 163 -2.0728978514671326e-01</internalNodes>
          <leafValues>
            5.3319054841995239e-01 -7.9714286327362061e-01</leafValues></_>
        <_>
          <internalNodes>
            0 -1 84 3.2526463270187378e-01</internalNodes>
          <leafValues>
            -5.8495736122131348e-01 3.2576328516006470e-01</leafValues></_>
        <_>
          <internalNodes>
            0 -1 42 -2.4407323449850082e-02</internalNodes>
          <leafValues>
            2.8041008114814758e-01 -4.8287916183471680e-01</leafValues></_>
        <_>
          <internalNodes>
            0 -1 2 -1.5354125935118645e-04</internalNodes>
          <leafValues>
            2.5408539175987244e-01 -4.2984405159950256e-01</leafValues></_>
        <_>
          <internalNodes>
            0 -1 166 3.6741612711921334e-04</internalNodes>
          <leafValues>
            -4.2468711733818054e-01 2.8620728850364685e-01</leafValues></_>
        <_>
          <internalNodes>
            0 -1 11 -1.0119406506419182e-03</internalNodes>
          <leafValues>
            -8.4574228525161743e-01 1.1728779226541519e-01</leafValues></_>
        <_>
          <internalNodes>
            0 -1 154 -2.9666020418517292e-04</internalNodes>
          <leafValues>
            -8.3484780788421631e-01 9.1835796833038330e-02</leafValues></_>
        <_>
          <internalNodes>
            0 -1 249 4.4297673739492893e-03</internalNodes>
          <leafValues>
            -3.0320724844932556e-01 3.4518960118293762e-01</leafValues></_>
        <_>
          <internalNodes>
            0 -1 94 8.1073082983493805e-03</internalNodes>
          <leafValues>
            -1.9135917723178864e-01 5.0322508811950684e-01</leafValues></_>
        <_>
          <internalNodes>
            0 -1 29 1.0833314154297113e-03</internalNodes>
          <leafValues>
            -3.8403725624084473e-01 2.6833388209342957e-01</leafValues></_>
        <_>
          <internalNodes>
            0 -1 214 -3.5882624797523022e-04</internalNodes>
          <leafValues>
            -8.8007050752639771e-01 8.7529800832271576e-02</leafValues></_>
        <_>
          <internalNodes>
            0 -1 174 -9.4823904335498810e-02</internalNodes>
          <leafValues>
            5.9438890218734741e-01 -1.8014326691627502e-01</leafValues></_>
        <_>
          <internalNodes>
            0 -1 10 -1.2564735487103462e-02</internalNodes>
          <leafValues>
            3.9653375744819641e-01 -2.2478947043418884e-01</leafValues></_>
        <_>
          <internalNodes>
            0 -1 13 5.3010764531791210e-04</internalNodes>
          <leafValues>
            1.0889392346143723e-01 -7.8917330503463745e-01</leafValues></_>
        <_>
          <internalNodes>
            0 -1 234 -8.2805249840021133e-03</internalNodes>
          <leafValues>
            -8.2697188854217529e-01 8.4653206169605255e-02</leafValues></_>
        <_>
          <internalNodes>
            0 -1 244 2.7964450418949127e-04</internalNodes>
          <leafValues>
            7.0703670382499695e-02 -8.4569817781448364e-01</leafValues></_>
        <_>
          <internalNodes>
            0 -1 194 9.3718420248478651e-04</internalNodes>
          <leafValues>
            6.8871043622493744e-02 -9.0069723129272461e-01</leafValues></_>
        <_>
          <internalNodes>
            0 -1 136 -7.7965686796233058e-04</internalNodes>
          <leafValues>
            1.5864975750446320e-01 -4.5155560970306396e-01</leafValues></_>
        <_>
          <internalNodes>
            0 -1 5 -3.7379766581580043e-04</internalNodes>
          <leafValues>
            2.5391283631324768e-01 -3.2834804058074951e-01</leafValues></_>
        <_>
          <internalNodes>
            0 -1 148 2.7151715010404587e-02</internalNodes>
          <leafValues>
            -7.4860131740570068e-01 1.0983939468860626e-01</leafValues></_>
        <_>
          <internalNodes>
            0 -1 50 7.1411335375159979e-04</internalNodes>
          <leafValues>
            -2.8537774085998535e-01 3.0142286419868469e-01</leafValues></_></weakClassifiers></_>
    <!-- stage 3 -->
    <_>
      <maxWeakCount>28</maxWeakCount>
      <stageThreshold>-1.4235377311706543e+00</stageThreshold>
      <weakClassifiers>
        <_>
          <internalNodes>
            0 -1 141 -2.8129130601882935e-01</internalNodes>
          <leafValues>
            5.5102038383483887e-01 -6.9291341304779053e-01</leafValues></_>
        <_>
          <internalNodes>
            0 -1 8 -2.1527836099267006e-02</internalNodes>
          <leafValues>
            2.4425865709781647e-01 -4.9274808168411255e-01</leafValues></_>
        <_>
          <internalNodes>
            0 -1 144 3.2316675782203674e-01</internalNodes>
          <leafValues>
            -2.4496594071388245e-01 4.9320802092552185e-01</leafValues></_>
        <_>
          <internalNodes>
            0 -1 182 -3.7585390964522958e-04</internalNodes>
          <leafValues>
            2.5086998939514160e-01 -4.6876296401023865e-01</leafValues></_>
        <_>
          <internalNodes>
            0 -1 96 -3.5830363631248474e-03</internalNodes>
          <leafValues>
            -6.2392771244049072e-01 1.9370214641094208e-01</leafValues></_>
        <_>
          <internalNodes>
            0 -1 108 1.2669516727328300e-02</internalNodes>
          <leafValues>
            -3.1805086135864258e-01 2.7339062094688416e-01</leafValues></_>
        <_>
          <internalNodes>
            0 -1 80 -7.0278142811730504e-04</internalNodes>
          <leafValues>
            -8.6920607089996338e-01 1.1865381896495819e-01</leafValues></_>
        <_>
          <internalNodes>
            0 -1 236 9.8017370328307152e-03</internalNodes>
          <leafValues>
            -3.5316810011863708e-01 2.0816254615783691e-01</leafValues></_>
        <_>
          <internalNodes>
            0 -1 230 -4.8248443636111915e-04</internalNodes>
          <leafValues>
            -7.1236449480056763e-01 1.1472433805465698e-01</leafValues></_>
        <_>
          <internalNodes>
            0 -1 117 5.1665114006027579e-04</internalNodes>
          <leafValues>
            -2.7599018812179565e-01 2.8648215532302856e-01</leafValues></_>
        <_>
          <internalNodes>
            0 -1 149 3.3440357074141502e-03</internalNodes>
          <leafValues>
            -4.9021321535110474e-01 1.6146226227283478e-01</leafValues></_>
        <_>
          <internalNodes>
            0 -1 43 1.6430881805717945e-03</internalNodes>
          <leafValues>
            -4.5704191923141479e-01 1.6084215044975281e-01</leafValues></_>
        <_>
          <internalNodes>
            0 -1 80 3.9709810516797006e-04</internalNodes>
          <leafValues>
            9.4137310981750488e-02 -7.1612530946731567e-01</leafValues></_>
        <_>
          <internalNodes>
            0 -1 33 -6.7777140066027641e-04</internalNodes>
          <leafValues>
            2.6421922445297241e-01 -2.7856209874153137e-01</leafValues></_>
        <_>
          <internalNodes>
            0 -1 79 -1.2142667174339294e-01</internalNodes>
          <leafValues>
            4.5589071512222290e-01 -1.7516097426414490e-01</leafValues></_>
        <_>
          <internalNodes>
            0 -1 254 1.9474019063636661e-03</internalNodes>
          <leafValues>
            -2.6152595877647400e-01 2.6942142844200134e-01</leafValues></_>
        <_>
          <internalNodes>
            0 -1 20 -1.5698110219091177e-03</internalNodes>
          <leafValues>
            3.6084169149398804e-01 -2.2012695670127869e-01</leafValues></_>
        <_>
          <internalNodes>
            0 -1 19 6.0604844242334366e-02</internalNodes>
          <leafValues>
            -7.6254093647003174e-01 1.0826788097620010e-01</leafValues></_>
        <_>
          <internalNodes>
            0 -1 230 5.7839346118271351e-04</internalNodes>
          <leafValues>
            7.9740524291992188e-02 -7.1693331003189087e-01</leafValues></_>
        <_>
          <internalNodes>
            0 -1 147 -6.0162637382745743e-03</internalNodes>
          <leafValues>
            3.0933088064193726e-01 -2.3094461858272552e-01</leafValues></_>
        <_>
          <internalNodes>
            0 -1 232 8.7983394041657448e-04</internalNodes>
          <leafValues>
            -2.7111122012138367e-01 2.6311951875686646e-01</leafValues></_>
        <_>
          <internalNodes>
            0 -1 89 8.1070291344076395e-04</internalNodes>
          <leafValues>
            8.6622580885887146e-02 -8.2412153482437134e-01</leafValues></_>
        <_>
          <internalNodes>
            0 -1 52 7.2254613041877747e-03</internalNodes>
          <leafValues>
            -2.3335368931293488e-01 3.1659188866615295e-01</leafValues></_>
        <_>
          <internalNodes>
            0 -1 132 1.4003060641698539e-04</internalNodes>
          <leafValues>
            -2.1403686702251434e-01 3.2628485560417175e-01</leafValues></_>
        <_>
          <internalNodes>
            0 -1 189 -5.4917763918638229e-03</internalNodes>
          <leafValues>
            -8.7951558828353882e-01 8.0340348184108734e-02</leafValues></_>
        <_>
          <internalNodes>
            0 -1 180 -4.1754328412935138e-04</internalNodes>
          <leafValues>
            -6.6435575485229492e-01 7.6117910444736481e-02</leafValues></_>
        <_>
          <internalNodes>
            0 -1 210 2.4984896299429238e-04</internalNodes>
          <leafValues>
            -1.8964961171150208e-01 3.2554155588150024e-01</leafValues></_>
        <_>
          <internalNodes>
            0 -1 231 3.3437365200370550e-03</internalNodes>
          <leafValues>
            9.2392876744270325e-02 -7.2323745489120483e-01</leafValues></_></weakClassifiers></_>
    <!-- stage 4 -->
    <_>
      <maxWeakCount>34</maxWeakCount>
      <stageThreshold>-1.3656662702560425e+00</stageThreshold>
      <weakClassifiers>
        <_>
          <internalNodes>
            0 -1 139 -2.9844474792480469e-01</internalNodes>
          <leafValues>
            3.2069972157478333e-01 -6.4107608795166016e-01</leafValues></_>
        <_>
          <internalNodes>
            0 -1 160 1.1916008079424500e-03</internalNodes>
          <leafValues>
            -4.6245101094245911e-01 2.7459433674812317e-01</leafValues></_>
        <_>
          <internalNodes>
            0 -1 145 2.7849268913269043e-01</internalNodes>
          <leafValues>
            -3.4760326147079468e-01 3.5020023584365845e-01</leafValues></_>
        <_>
          <internalNodes>
            0 -1 188 2.2479153703898191e-03</internalNodes>
          <leafValues>
            -2.6534780859947205e-01 4.0332987904548645e-01</leafValues></_>
        <_>
          <internalNodes>
            0 -1 4 -1.9738057744689286e-04</internalNodes>
          <leafValues>
            2.1991471946239471e-01 -3.5037285089492798e-01</leafValues></_>
        <_>
          <internalNodes>
            0 -1 128 -5.7747133541852236e-04</internalNodes>
          <leafValues>
            -7.9169923067092896e-01 1.0238987952470779e-01</leafValues></_>
        <_>
          <internalNodes>
            0 -1 128 4.8327760305255651e-04</internalNodes>
          <leafValues>
            1.1112158745527267e-01 -7.2816485166549683e-01</leafValues></_>
        <_>
          <internalNodes>
            0 -1 27 -2.2436991333961487e-02</internalNodes>
          <leafValues>
            -7.4497467279434204e-01 8.6449712514877319e-02</leafValues></_>
        <_>
          <internalNodes>
            0 -1 129 -1.4781919121742249e-01</internalNodes>
          <leafValues>
            5.6895571947097778e-01 -1.4104107022285461e-01</leafValues></_>
        <_>
          <internalNodes>
            0 -1 25 1.1381730437278748e-02</internalNodes>
          <leafValues>
            -3.3233791589736938e-01 2.1597301959991455e-01</leafValues></_>
        <_>
          <internalNodes>
            0 -1 120 -1.6688441392034292e-03</internalNodes>
          <leafValues>
            2.4581626057624817e-01 -2.8114497661590576e-01</leafValues></_>
        <_>
          <internalNodes>
            0 -1 226 4.4051447184756398e-04</internalNodes>
          <leafValues>
            -2.5618982315063477e-01 2.8173610568046570e-01</leafValues></_>
        <_>
          <internalNodes>
            0 -1 264 2.0566952298395336e-04</internalNodes>
          <leafValues>
            9.2771723866462708e-02 -6.7423450946807861e-01</leafValues></_>
        <_>
          <internalNodes>
            0 -1 35 -1.4946158044040203e-02</internalNodes>
          <leafValues>
            2.8538414835929871e-01 -2.5742787122726440e-01</leafValues></_>
        <_>
          <internalNodes>
            0 -1 255 4.6291435137391090e-04</internalNodes>
          <leafValues>
            1.0679762810468674e-01 -6.3798636198043823e-01</leafValues></_>
        <_>
          <internalNodes>
            0 -1 245 3.6676312447525561e-04</internalNodes>
          <leafValues>
            -4.0831342339515686e-01 1.5475127100944519e-01</leafValues></_>
        <_>
          <internalNodes>
            0 -1 74 1.7823198868427426e-04</internalNodes>
          <leafValues>
            1.3948623836040497e-01 -4.8700127005577087e-01</leafValues></_>
        <_>
          <internalNodes>
            0 -1 260 -3.7975059240125120e-04</internalNodes>
          <leafValues>
            3.6160421371459961e-01 -1.8826778233051300e-01</leafValues></_>
        <_>
          <internalNodes>
            0 -1 261 -8.4345473442226648e-04</internalNodes>
          <leafValues>
            -7.1480637788772583e-01 1.3113105297088623e-01</leafValues></_>
        <_>
          <internalNodes>
            0 -1 67 2.8272520285099745e-04</internalNodes>
          <leafValues>
            -2.9492881894111633e-01 2.1558727324008942e-01</leafValues></_>
        <_>
          <internalNodes>
            0 -1 14 1.0730626527220011e-03</internalNodes>
          <leafValues>
            7.3072716593742371e-02 -8.1911629438400269e-01</leafValues></_>
        <_>
          <internalNodes>
            0 -1 118 9.9853239953517914e-04</internalNodes>
          <leafValues>
            -2.5701755285263062e-01 2.7524182200431824e-01</leafValues></_>
        <_>
          <internalNodes>
            0 -1 55 -2.1184550132602453e-04</internalNodes>
          <leafValues>
            3.2694289088249207e-01 -2.4897584319114685e-01</leafValues></_>
        <_>
          <internalNodes>
            0 -1 184 1.2682683300226927e-03</internalNodes>
          <leafValues>
            -1.8637487292289734e-01 3.9081922173500061e-01</leafValues></_>
        <_>
          <internalNodes>
            0 -1 185 1.1968426406383514e-03</internalNodes>
          <leafValues>
            -2.6683428883552551e-01 2.3725344240665436e-01</leafValues></_>
        <_>
          <internalNodes>
            0 -1 87 1.8669752171263099e-03</internalNodes>
          <leafValues>
            -1.7914423346519470e-01 3.7370482087135315e-01</leafValues></_>
        <_>
          <internalNodes>
            0 -1 112 3.9358093636110425e-04</internalNodes>
          <leafValues>
            -1.3712744414806366e-01 4.3065083026885986e-01</leafValues></_>
        <_>
          <internalNodes>
            0 -1 21 -9.8342578858137131e-03</internalNodes>
          <leafValues>
            3.8017794489860535e-01 -1.6372354328632355e-01</leafValues></_>
        <_>
          <internalNodes>
            0 -1 69 -5.4243637714534998e-04</internalNodes>
          <leafValues>
            -7.8766608238220215e-01 9.1282069683074951e-02</leafValues></_>
        <_>
          <internalNodes>
            0 -1 54 9.4008899759501219e-04</internalNodes>
          <leafValues>
            -2.8224396705627441e-01 2.6112142205238342e-01</leafValues></_>
        <_>
          <internalNodes>
            0 -1 31 5.8683436363935471e-03</internalNodes>
          <leafValues>
            8.8026583194732666e-02 -7.9093837738037109e-01</leafValues></_>
        <_>
          <internalNodes>
            0 -1 217 -2.1712447050958872e-04</internalNodes>
          <leafValues>
            4.0496659278869629e-01 -1.9050973653793335e-01</leafValues></_>
        <_>
          <internalNodes>
            0 -1 86 -2.5991798611357808e-04</internalNodes>
          <leafValues>
            -5.5878621339797974e-01 1.0887882858514786e-01</leafValues></_>
        <_>
          <internalNodes>
            0 -1 16 -9.8076239228248596e-02</internalNodes>
          <leafValues>
            6.8067975342273712e-02 -7.8057342767715454e-01</leafValues></_></weakClassifiers></_>
    <!-- stage 5 -->
    <_>
      <maxWeakCount>36</maxWeakCount>
      <stageThreshold>-1.2293529510498047e+00</stageThreshold>
      <weakClassifiers>
        <_>
          <internalNodes>
            0 -1 106 -4.9228096008300781e-01</internalNodes>
          <leafValues>
            1.6297261416912079e-01 -6.2655884027481079e-01</leafValues></_>
        <_>
          <internalNodes>
            0 -1 253 7.8112743794918060e-03</internalNodes>
          <leafValues>
            -3.9659616351127625e-01 2.3545221984386444e-01</leafValues></_>
        <_>
          <internalNodes>
            0 -1 111 3.6616716533899307e-04</internalNodes>
          <leafValues>
            -3.6306226253509521e-01 2.4337285757064819e-01</leafValues></_>
        <_>
          <internalNodes>
            0 -1 133 3.2968661980703473e-04</internalNodes>
          <leafValues>
            1.2211500853300095e-01 -6.9231361150741577e-01</leafValues></_>
        <_>
          <internalNodes>
            0 -1 203 5.9470895212143660e-04</internalNodes>
          <leafValues>
            -2.2736987471580505e-01 3.4103122353553772e-01</leafValues></_>
        <_>
          <internalNodes>
            0 -1 183 -7.6888231560587883e-03</internalNodes>
          <leafValues>
            3.9480495452880859e-01 -2.2899596393108368e-01</leafValues></_>
        <_>
          <internalNodes>
            0 -1 75 1.4225627528503537e-03</internalNodes>
          <leafValues>
            -3.8208374381065369e-01 1.8846590816974640e-01</leafValues></_>
        <_>
          <internalNodes>
            0 -1 38 -4.4110199087299407e-04</internalNodes>
          <leafValues>
            -7.6671856641769409e-01 8.1310853362083435e-02</leafValues></_>
        <_>
          <internalNodes>
            0 -1 198 -1.6390650998800993e-03</internalNodes>
          <leafValues>
            3.3391350507736206e-01 -1.9898837804794312e-01</leafValues></_>
        <_>
          <internalNodes>
            0 -1 22 -3.2969348132610321e-02</internalNodes>
          <leafValues>
            3.8923421502113342e-01 -1.8831263482570648e-01</leafValues></_>
        <_>
          <internalNodes>
            0 -1 133 -4.6160584315657616e-04</internalNodes>
          <leafValues>
            -6.5675771236419678e-01 1.0815174132585526e-01</leafValues></_>
        <_>
          <internalNodes>
            0 -1 70 -1.2427102029323578e-01</internalNodes>
          <leafValues>
            -5.4781818389892578e-01 9.9521040916442871e-02</leafValues></_>
        <_>
          <internalNodes>
            0 -1 262 -5.7432905305176973e-04</internalNodes>
          <leafValues>
            -7.7507847547531128e-01 7.5405694544315338e-02</leafValues></_>
        <_>
          <internalNodes>
            0 -1 1 -4.4086575508117676e-04</internalNodes>
          <leafValues>
            2.0556256175041199e-01 -3.0874913930892944e-01</leafValues></_>
        <_>
          <internalNodes>
            0 -1 125 1.1320225894451141e-03</internalNodes>
          <leafValues>
            -1.4835584163665771e-01 4.0897029638290405e-01</leafValues></_>
        <_>
          <internalNodes>
            0 -1 41 -4.8481882549822330e-04</internalNodes>
          <leafValues>
            -6.3500529527664185e-01 1.0053225606679916e-01</leafValues></_>
        <_>
          <internalNodes>
            0 -1 248 7.6135300332680345e-04</internalNodes>
          <leafValues>
            5.0261788070201874e-02 -8.9705252647399902e-01</leafValues></_>
        <_>
          <internalNodes>
            0 -1 34 -1.4209256041795015e-03</internalNodes>
          <leafValues>
            2.4037104845046997e-01 -2.4940982460975647e-01</leafValues></_>
        <_>
          <internalNodes>
            0 -1 150 4.1409689583815634e-04</internalNodes>
          <leafValues>
            9.8148658871650696e-02 -5.5737537145614624e-01</leafValues></_>
        <_>
          <internalNodes>
            0 -1 61 5.6419172324240208e-04</internalNodes>
          <leafValues>
            6.4490728080272675e-02 -7.8150475025177002e-01</leafValues></_>
        <_>
          <internalNodes>
            0 -1 151 -1.8983722839038819e-04</internalNodes>
          <leafValues>
            -5.8405447006225586e-01 7.9398483037948608e-02</leafValues></_>
        <_>
          <internalNodes>
            0 -1 66 -1.9491100683808327e-03</internalNodes>
          <leafValues>
            3.8087111711502075e-01 -1.7011664807796478e-01</leafValues></_>
        <_>
          <internalNodes>
            0 -1 209 2.3350790434051305e-04</internalNodes>
          <leafValues>
            -1.8222461640834808e-01 3.3806481957435608e-01</leafValues></_>
        <_>
          <internalNodes>
            0 -1 146 -1.6523500380571932e-04</internalNodes>
          <leafValues>
            -3.5118490457534790e-01 1.6289909183979034e-01</leafValues></_>
        <_>
          <internalNodes>
            0 -1 110 -1.3920654309913516e-03</internalNodes>
          <leafValues>
            2.4176511168479919e-01 -2.8676107525825500e-01</leafValues></_>
        <_>
          <internalNodes>
            0 -1 238 1.9613283802755177e-04</internalNodes>
          <leafValues>
            -2.3832696676254272e-01 2.2933095693588257e-01</leafValues></_>
        <_>
          <internalNodes>
            0 -1 251 9.3932775780558586e-04</internalNodes>
          <leafValues>
            7.9539686441421509e-02 -6.5935540199279785e-01</leafValues></_>
        <_>
          <internalNodes>
            0 -1 215 -2.2007033112458885e-04</internalNodes>
          <leafValues>
            3.3167019486427307e-01 -1.9310881197452545e-01</leafValues></_>
        <_>
          <internalNodes>
            0 -1 215 2.3529471945948899e-04</internalNodes>
          <leafValues>
            -1.5828827023506165e-01 3.5789585113525391e-01</leafValues></_>
        <_>
          <internalNodes>
            0 -1 239 5.3047086112201214e-04</internalNodes>
          <leafValues>
            7.0443697273731232e-02 -8.4533905982971191e-01</leafValues></_>
        <_>
          <internalNodes>
            0 -1 256 1.4770637790206820e-04</internalNodes>
          <leafValues>
            7.8792646527290344e-02 -5.7923775911331177e-01</leafValues></_>
        <_>
          <internalNodes>
            0 -1 65 -7.8774364665150642e-03</internalNodes>
          <leafValues>
            -7.3245644569396973e-01 6.7011103034019470e-02</leafValues></_>
        <_>
          <internalNodes>
            0 -1 242 1.6083545051515102e-04</internalNodes>
          <leafValues>
            -2.4839040637016296e-01 2.2276003658771515e-01</leafValues></_>
        <_>
          <internalNodes>
            0 -1 252 4.7618016833439469e-04</internalNodes>
          <leafValues>
            7.5257860124111176e-02 -7.5238287448883057e-01</leafValues></_>
        <_>
          <internalNodes>
            0 -1 218 7.7286519808694720e-04</internalNodes>
          <leafValues>
            -1.0569965094327927e-01 6.3801634311676025e-01</leafValues></_>
        <_>
          <internalNodes>
            0 -1 40 1.2503440957516432e-03</internalNodes>
          <leafValues>
            -3.2875862717628479e-01 2.0641109347343445e-01</leafValues></_></weakClassifiers></_>
    <!-- stage 6 -->
    <_>
      <maxWeakCount>41</maxWeakCount>
      <stageThreshold>-1.2859336137771606e+00</stageThreshold>
      <weakClassifiers>
        <_>
          <internalNodes>
            0 -1 176 -9.6751540899276733e-02</internalNodes>
          <leafValues>
            2.4293784797191620e-01 -5.8164221048355103e-01</leafValues></_>
        <_>
          <internalNodes>
            0 -1 126 1.1748768389225006e-02</internalNodes>
          <leafValues>
            -4.1123133897781372e-01 2.1800896525382996e-01</leafValues></_>
        <_>
          <internalNodes>
            0 -1 73 3.2165646553039551e-01</internalNodes>
          <leafValues>
            -2.9104298353195190e-01 2.8417289257049561e-01</leafValues></_>
        <_>
          <internalNodes>
            0 -1 114 -9.6689665224403143e-04</internalNodes>
          <leafValues>
            4.3243199586868286e-01 -1.6026562452316284e-01</leafValues></_>
        <_>
          <internalNodes>
            0 -1 85 2.0907914731651545e-03</internalNodes>
          <leafValues>
            -4.7908127307891846e-01 1.3530403375625610e-01</leafValues></_>
        <_>
          <internalNodes>
            0 -1 76 3.6021546111442149e-04</internalNodes>
          <leafValues>
            -3.2185614109039307e-01 2.0996794104576111e-01</leafValues></_>
        <_>
          <internalNodes>
            0 -1 107 4.8990454524755478e-04</internalNodes>
          <leafValues>
            -2.1784381568431854e-01 3.0952027440071106e-01</leafValues></_>
        <_>
          <internalNodes>
            0 -1 219 -1.7478635709267110e-04</internalNodes>
          <leafValues>
            3.2665887475013733e-01 -1.9159090518951416e-01</leafValues></_>
        <_>
          <internalNodes>
            0 -1 187 1.5466756187379360e-02</internalNodes>
          <leafValues>
            -3.1466105580329895e-01 2.2099958360195160e-01</leafValues></_>
        <_>
          <internalNodes>
            0 -1 233 1.8916133791208267e-02</internalNodes>
          <leafValues>
            -1.7254616320133209e-01 3.5673451423645020e-01</leafValues></_>
        <_>
          <internalNodes>
            0 -1 206 8.8986905757337809e-04</internalNodes>
          <leafValues>
            -2.1955519914627075e-01 2.6678013801574707e-01</leafValues></_>
        <_>
          <internalNodes>
            0 -1 59 -3.7183909444138408e-04</internalNodes>
          <leafValues>
            -6.9059228897094727e-01 9.0130969882011414e-02</leafValues></_>
        <_>
          <internalNodes>
            0 -1 272 9.5062255859375000e-03</internalNodes>
          <leafValues>
            5.6841511279344559e-02 -8.4827029705047607e-01</leafValues></_>
        <_>
          <internalNodes>
            0 -1 56 -9.7228260710835457e-04</internalNodes>
          <leafValues>
            3.6526966094970703e-01 -1.7189525067806244e-01</leafValues></_>
        <_>
          <internalNodes>
            0 -1 255 -7.0558779407292604e-04</internalNodes>
          <leafValues>
            -8.1167382001876831e-01 7.5343415141105652e-02</leafValues></_>
        <_>
          <internalNodes>
            0 -1 168 5.5821379646658897e-03</internalNodes>
          <leafValues>
            -2.8124356269836426e-01 1.8587525188922882e-01</leafValues></_>
        <_>
          <internalNodes>
            0 -1 169 -8.5816730279475451e-04</internalNodes>
          <leafValues>
            3.0644330382347107e-01 -1.9007737934589386e-01</leafValues></_>
        <_>
          <internalNodes>
            0 -1 152 8.9263007976114750e-04</internalNodes>
          <leafValues>
            9.3705728650093079e-02 -6.1865794658660889e-01</leafValues></_>
        <_>
          <internalNodes>
            0 -1 153 7.8869622666388750e-04</internalNodes>
          <leafValues>
            -1.9144335389137268e-01 3.6811795830726624e-01</leafValues></_>
        <_>
          <internalNodes>
            0 -1 131 -6.8361170589923859e-02</internalNodes>
          <leafValues>
            5.2813243865966797e-01 -1.1029622703790665e-01</leafValues></_>
        <_>
          <internalNodes>
            0 -1 92 -2.8526959940791130e-03</internalNodes>
          <leafValues>
            2.5689509510993958e-01 -2.2451606392860413e-01</leafValues></_>
        <_>
          <internalNodes>
            0 -1 0 1.1536573292687535e-03</internalNodes>
          <leafValues>
            8.1579789519309998e-02 -6.6134828329086304e-01</leafValues></_>
        <_>
          <internalNodes>
            0 -1 124 5.1609030924737453e-04</internalNodes>
          <leafValues>
            -1.3415527343750000e-01 4.5124334096908569e-01</leafValues></_>
        <_>
          <internalNodes>
            0 -1 216 -1.9071379210799932e-04</internalNodes>
          <leafValues>
            -6.5068054199218750e-01 1.0146079212427139e-01</leafValues></_>
        <_>
          <internalNodes>
            0 -1 227 -2.2333356901071966e-04</internalNodes>
          <leafValues>
            5.3187775611877441e-01 -1.2529863417148590e-01</leafValues></_>
        <_>
          <internalNodes>
            0 -1 196 2.8922501951456070e-04</internalNodes>
          <leafValues>
            1.1596299707889557e-01 -5.5525177717208862e-01</leafValues></_>
        <_>
          <internalNodes>
            0 -1 91 -5.1479699322953820e-04</internalNodes>
          <leafValues>
            4.0782943367958069e-01 -1.4342933893203735e-01</leafValues></_>
        <_>
          <internalNodes>
            0 -1 3 -1.4665699563920498e-03</internalNodes>
          <leafValues>
            -6.0191851854324341e-01 1.0439524054527283e-01</leafValues></_>
        <_>
          <internalNodes>
            0 -1 105 -4.0764140430837870e-04</internalNodes>
          <leafValues>
            4.2127573490142822e-01 -1.6944104433059692e-01</leafValues></_>
        <_>
          <internalNodes>
            0 -1 18 9.4049826264381409e-02</internalNodes>
          <leafValues>
            -5.2562803030014038e-01 1.2111289054155350e-01</leafValues></_>
        <_>
          <internalNodes>
            0 -1 205 -1.1458233930170536e-03</internalNodes>
          <leafValues>
            2.7887815237045288e-01 -2.0424273610115051e-01</leafValues></_>
        <_>
          <internalNodes>
            0 -1 57 8.1506435526534915e-04</internalNodes>
          <leafValues>
            1.2525233626365662e-01 -4.2219996452331543e-01</leafValues></_>
        <_>
          <internalNodes>
            0 -1 121 6.1414344236254692e-04</internalNodes>
          <leafValues>
            -9.9115975201129913e-02 5.7301545143127441e-01</leafValues></_>
        <_>
          <internalNodes>
            0 -1 266 -6.1343808192759752e-04</internalNodes>
          <leafValues>
            -8.2126516103744507e-01 7.2064176201820374e-02</leafValues></_>
        <_>
          <internalNodes>
            0 -1 122 -3.2969130552373827e-04</internalNodes>
          <leafValues>
            3.8654574751853943e-01 -1.5756794810295105e-01</leafValues></_>
        <_>
          <internalNodes>
            0 -1 267 -6.1856320826336741e-04</internalNodes>
          <leafValues>
            -8.8386023044586182e-01 6.6912218928337097e-02</leafValues></_>
        <_>
          <internalNodes>
            0 -1 246 6.6196927800774574e-03</internalNodes>
          <leafValues>
            -3.0539631843566895e-01 1.9152952730655670e-01</leafValues></_>
        <_>
          <internalNodes>
            0 -1 201 2.8241600375622511e-04</internalNodes>
          <leafValues>
            8.7934724986553192e-02 -6.1877429485321045e-01</leafValues></_>
        <_>
          <internalNodes>
            0 -1 223 -2.1797031513415277e-04</internalNodes>
          <leafValues>
            3.4912791848182678e-01 -1.7627926170825958e-01</leafValues></_>
        <_>
          <internalNodes>
            0 -1 224 4.0487718069925904e-04</internalNodes>
          <leafValues>
            -1.7288292944431305e-01 3.8771045207977295e-01</leafValues></_>
        <_>
          <internalNodes>
            0 -1 269 8.4326919168233871e-03</internalNodes>
          <leafValues>
            8.6067408323287964e-02 -7.9155182838439941e-01</leafValues></_></weakClassifiers></_>
    <!-- stage 7 -->
    <_>
      <maxWeakCount>43</maxWeakCount>
      <stageThreshold>-1.2701267004013062e+00</stageThreshold>
      <weakClassifiers>
        <_>
          <internalNodes>
            0 -1 175 -2.6257538795471191e-01</internalNodes>
          <leafValues>
            -5.1792830228805542e-02 -6.7325532436370850e-01</leafValues></_>
        <_>
          <internalNodes>
            0 -1 39 -6.3302814960479736e-03</internalNodes>
          <leafValues>
            2.4821044504642487e-01 -3.5189688205718994e-01</leafValues></_>
        <_>
          <internalNodes>
            0 -1 162 1.7373562150169164e-04</internalNodes>
          <leafValues>
            -2.5341403484344482e-01 2.5618615746498108e-01</leafValues></_>
        <_>
          <internalNodes>
            0 -1 83 -6.3214945839717984e-04</internalNodes>
          <leafValues>
            -7.1782463788986206e-01 9.0467296540737152e-02</leafValues></_>
        <_>
          <internalNodes>
            0 -1 265 7.6033966615796089e-03</internalNodes>
          <leafValues>
            -4.2724713683128357e-01 1.6893784701824188e-01</leafValues></_>
        <_>
          <internalNodes>
            0 -1 53 2.4596382863819599e-03</internalNodes>
          <leafValues>
            -1.9784134626388550e-01 3.1634590029716492e-01</leafValues></_>
        <_>
          <internalNodes>
            0 -1 271 -1.8449005438014865e-04</internalNodes>
          <leafValues>
            -5.6876462697982788e-01 1.1028512567281723e-01</leafValues></_>
        <_>
          <internalNodes>
            0 -1 32 -3.7504354258999228e-04</internalNodes>
          <leafValues>
            2.5956887006759644e-01 -2.5637412071228027e-01</leafValues></_>
        <_>
          <internalNodes>
            0 -1 81 4.1702110320329666e-04</internalNodes>
          <leafValues>
            9.6502162516117096e-02 -7.0841872692108154e-01</leafValues></_>
        <_>
          <internalNodes>
            0 -1 28 2.4869167828001082e-04</internalNodes>
          <leafValues>
            -1.6750489175319672e-01 4.0074473619461060e-01</leafValues></_>
        <_>
          <internalNodes>
            0 -1 271 1.2806031736545265e-04</internalNodes>
          <leafValues>
            1.2729232013225555e-01 -5.2222865819931030e-01</leafValues></_>
        <_>
          <internalNodes>
            0 -1 193 -1.3489942066371441e-03</internalNodes>
          <leafValues>
            5.0659960508346558e-01 -1.2387339025735855e-01</leafValues></_>
        <_>
          <internalNodes>
            0 -1 196 -2.7938187122344971e-04</internalNodes>
          <leafValues>
            -5.6525486707687378e-01 1.1946633458137512e-01</leafValues></_>
        <_>
          <internalNodes>
            0 -1 228 3.6022684071213007e-05</internalNodes>
          <leafValues>
            -2.8383332490921021e-01 2.2536131739616394e-01</leafValues></_>
        <_>
          <internalNodes>
            0 -1 95 2.5960244238376617e-04</internalNodes>
          <leafValues>
            -1.8573489785194397e-01 3.0904793739318848e-01</leafValues></_>
        <_>
          <internalNodes>
            0 -1 140 -8.5512414807453752e-04</internalNodes>
          <leafValues>
            -8.3766728639602661e-01 6.5644010901451111e-02</leafValues></_>
        <_>
          <internalNodes>
            0 -1 102 2.9468728462234139e-04</internalNodes>
          <leafValues>
            -1.5887226164340973e-01 3.6646470427513123e-01</leafValues></_>
        <_>
          <internalNodes>
            0 -1 103 -1.8346685101278126e-04</internalNodes>
          <leafValues>
            3.8454759120941162e-01 -1.4902108907699585e-01</leafValues></_>
        <_>
          <internalNodes>
            0 -1 26 -6.2827151268720627e-03</internalNodes>
          <leafValues>
            -5.8903682231903076e-01 1.1299160122871399e-01</leafValues></_>
        <_>
          <internalNodes>
            0 -1 220 3.9585484191775322e-03</internalNodes>
          <leafValues>
            -2.3369415104389191e-01 2.3839606344699860e-01</leafValues></_>
        <_>
          <internalNodes>
            0 -1 101 5.0591200124472380e-04</internalNodes>
          <leafValues>
            8.3057045936584473e-02 -6.6497361660003662e-01</leafValues></_>
        <_>
          <internalNodes>
            0 -1 130 1.5872773656155914e-04</internalNodes>
          <leafValues>
            1.1190510541200638e-01 -4.3726402521133423e-01</leafValues></_>
        <_>
          <internalNodes>
            0 -1 98 1.5522211324423552e-03</internalNodes>
          <leafValues>
            -1.8183447420597076e-01 3.0402785539627075e-01</leafValues></_>
        <_>
          <internalNodes>
            0 -1 49 4.7152303159236908e-04</internalNodes>
          <leafValues>
            -3.4084540605545044e-01 1.7694742977619171e-01</leafValues></_>
        <_>
          <internalNodes>
            0 -1 263 2.8577342163771391e-04</internalNodes>
          <leafValues>
            -2.2176723182201385e-01 2.5380998849868774e-01</leafValues></_>
        <_>
          <internalNodes>
            0 -1 235 3.2069655135273933e-03</internalNodes>
          <leafValues>
            1.0168459266424179e-01 -5.3655332326889038e-01</leafValues></_>
        <_>
          <internalNodes>
            0 -1 37 -1.4222422032617033e-04</internalNodes>
          <leafValues>
            2.2592158615589142e-01 -2.5318446755409241e-01</leafValues></_>
        <_>
          <internalNodes>
            0 -1 191 2.8368204366415739e-03</internalNodes>
          <leafValues>
            -1.5951238572597504e-01 3.6754336953163147e-01</leafValues></_>
        <_>
          <internalNodes>
            0 -1 165 8.3694409113377333e-04</internalNodes>
          <leafValues>
            -1.8872307240962982e-01 3.0534380674362183e-01</leafValues></_>
        <_>
          <internalNodes>
            0 -1 88 1.2994739226996899e-03</internalNodes>
          <leafValues>
            -2.0863743126392365e-01 3.1099745631217957e-01</leafValues></_>
        <_>
          <internalNodes>
            0 -1 213 -9.9538345239125192e-05</internalNodes>
          <leafValues>
            -3.9788597822189331e-01 1.4519241452217102e-01</leafValues></_>
        <_>
          <internalNodes>
            0 -1 100 -5.4222618928179145e-04</internalNodes>
          <leafValues>
            4.8357480764389038e-01 -1.3258644938468933e-01</leafValues></_>
        <_>
          <internalNodes>
            0 -1 237 -7.2169695049524307e-03</internalNodes>
          <leafValues>
            -8.0707365274429321e-01 8.0834873020648956e-02</leafValues></_>
        <_>
          <internalNodes>
            0 -1 143 4.0320784319192171e-04</internalNodes>
          <leafValues>
            8.2641907036304474e-02 -5.9517049789428711e-01</leafValues></_>
        <_>
          <internalNodes>
            0 -1 190 -2.7755674091167748e-04</internalNodes>
          <leafValues>
            -7.8610664606094360e-01 5.7926815003156662e-02</leafValues></_>
        <_>
          <internalNodes>
            0 -1 225 -1.1782016372308135e-04</internalNodes>
          <leafValues>
            2.5795924663543701e-01 -2.1066643297672272e-01</leafValues></_>
        <_>
          <internalNodes>
            0 -1 143 -1.2086494825780392e-03</internalNodes>
          <leafValues>
            -8.4042721986770630e-01 6.7022837698459625e-02</leafValues></_>
        <_>
          <internalNodes>
            0 -1 173 -1.9337157718837261e-03</internalNodes>
          <leafValues>
            4.2956748604774475e-01 -1.4618863165378571e-01</leafValues></_>
        <_>
          <internalNodes>
            0 -1 127 1.4721213374286890e-03</internalNodes>
          <leafValues>
            -1.9952899217605591e-01 3.4674838185310364e-01</leafValues></_>
        <_>
          <internalNodes>
            0 -1 135 3.3042998984456062e-04</internalNodes>
          <leafValues>
            8.5087522864341736e-02 -6.5068954229354858e-01</leafValues></_>
        <_>
          <internalNodes>
            0 -1 155 -2.3761266493238509e-04</internalNodes>
          <leafValues>
            -6.4187318086624146e-01 7.7267363667488098e-02</leafValues></_>
        <_>
          <internalNodes>
            0 -1 60 9.1100856661796570e-04</internalNodes>
          <leafValues>
            -1.8269525468349457e-01 3.4114593267440796e-01</leafValues></_>
        <_>
          <internalNodes>
            0 -1 200 1.5822788700461388e-02</internalNodes>
          <leafValues>
            -1.0273910313844681e-01 5.5697000026702881e-01</leafValues></_></weakClassifiers></_>
    <!-- stage 8 -->
    <_>
      <maxWeakCount>40</maxWeakCount>
      <stageThreshold>-1.2454714775085449e+00</stageThreshold>
      <weakClassifiers>
        <_>
          <internalNodes>
            0 -1 93 2.8454458713531494e-01</internalNodes>
          <leafValues>
            -5.9737706184387207e-01 1.2865497171878815e-01</leafValues></_>
        <_>
          <internalNodes>
            0 -1 7 -4.6920799650251865e-03</internalNodes>
          <leafValues>
            1.0401729494333267e-01 -4.8483300209045410e-01</leafValues></_>
        <_>
          <internalNodes>
            0 -1 204 1.7401884542778134e-04</internalNodes>
          <leafValues>
            1.1538082361221313e-01 -5.8808809518814087e-01</leafValues></_>
        <_>
          <internalNodes>
            0 -1 240 -9.3966687563806772e-04</internalNodes>
          <leafValues>
            3.0306607484817505e-01 -2.1711401641368866e-01</leafValues></_>
        <_>
          <internalNodes>
            0 -1 268 -2.5053403805941343e-04</internalNodes>
          <leafValues>
            2.0060785114765167e-01 -3.2234072685241699e-01</leafValues></_>
        <_>
          <internalNodes>
            0 -1 77 3.2079109223559499e-04</internalNodes>
          <leafValues>
            -1.5835730731487274e-01 3.7450888752937317e-01</leafValues></_>
        <_>
          <internalNodes>
            0 -1 171 -1.5262583037838340e-03</internalNodes>
          <leafValues>
            4.7288581728935242e-01 -1.3618955016136169e-01</leafValues></_>
        <_>
          <internalNodes>
            0 -1 155 2.5891204131767154e-04</internalNodes>
          <leafValues>
            9.7834497690200806e-02 -7.0108771324157715e-01</leafValues></_>
        <_>
          <internalNodes>
            0 -1 113 -5.9172208420932293e-04</internalNodes>
          <leafValues>
            4.0480446815490723e-01 -1.6768045723438263e-01</leafValues></_>
        <_>
          <internalNodes>
            0 -1 12 -2.8521515196189284e-04</internalNodes>
          <leafValues>
            2.8098541498184204e-01 -2.2004665434360504e-01</leafValues></_>
        <_>
          <internalNodes>
            0 -1 192 5.8163149515166879e-04</internalNodes>
          <leafValues>
            8.9509420096874237e-02 -7.3421680927276611e-01</leafValues></_>
        <_>
          <internalNodes>
            0 -1 64 8.3992071449756622e-03</internalNodes>
          <leafValues>
            6.7946895956993103e-02 -7.0324707031250000e-01</leafValues></_>
        <_>
          <internalNodes>
            0 -1 116 3.3719781786203384e-03</internalNodes>
          <leafValues>
            -1.0979168117046356e-01 6.0263717174530029e-01</leafValues></_>
        <_>
          <internalNodes>
            0 -1 45 -6.8618892692029476e-03</internalNodes>
          <leafValues>
            2.8535759449005127e-01 -2.1139493584632874e-01</leafValues></_>
        <_>
          <internalNodes>
            0 -1 89 -3.2892817398533225e-04</internalNodes>
          <leafValues>
            -6.0951721668243408e-01 1.0006033629179001e-01</leafValues></_>
        <_>
          <internalNodes>
            0 -1 46 -3.7624547258019447e-03</internalNodes>
          <leafValues>
            3.5434573888778687e-01 -1.9715934991836548e-01</leafValues></_>
        <_>
          <internalNodes>
            0 -1 273 -4.3511466355994344e-04</internalNodes>
          <leafValues>
            -5.3250074386596680e-01 1.2693317234516144e-01</leafValues></_>
        <_>
          <internalNodes>
            0 -1 142 7.8081560786813498e-04</internalNodes>
          <leafValues>
            -2.3646706342697144e-01 2.9211369156837463e-01</leafValues></_>
        <_>
          <internalNodes>
            0 -1 63 -7.6213232241570950e-03</internalNodes>
          <leafValues>
            5.9684723615646362e-01 -1.2693621218204498e-01</leafValues></_>
        <_>
          <internalNodes>
            0 -1 47 -9.7458243370056152e-02</internalNodes>
          <leafValues>
            3.6011710762977600e-01 -1.6719746589660645e-01</leafValues></_>
        <_>
          <internalNodes>
            0 -1 221 -4.6009896323084831e-04</internalNodes>
          <leafValues>
            4.9439364671707153e-01 -1.2493586540222168e-01</leafValues></_>
        <_>
          <internalNodes>
            0 -1 222 2.5905843358486891e-04</internalNodes>
          <leafValues>
            -1.5339937806129456e-01 3.9821881055831909e-01</leafValues></_>
        <_>
          <internalNodes>
            0 -1 119 1.7067891894839704e-04</internalNodes>
          <leafValues>
            -6.1444902420043945e-01 1.0165690630674362e-01</leafValues></_>
        <_>
          <internalNodes>
            0 -1 186 2.9488274594768882e-04</internalNodes>
          <leafValues>
            6.4405411481857300e-02 -7.2190606594085693e-01</leafValues></_>
        <_>
          <internalNodes>
            0 -1 123 2.2385544434655458e-04</internalNodes>
          <leafValues>
            -1.1720594018697739e-01 5.1601403951644897e-01</leafValues></_>
        <_>
          <internalNodes>
            0 -1 241 -1.9173815962858498e-04</internalNodes>
          <leafValues>
            3.1256994605064392e-01 -1.7558594048023224e-01</leafValues></_>
        <_>
          <internalNodes>
            0 -1 51 1.6572967870160937e-03</internalNodes>
          <leafValues>
            -1.6227202117443085e-01 3.2241535186767578e-01</leafValues></_>
        <_>
          <internalNodes>
            0 -1 90 -3.5924511030316353e-04</internalNodes>
          <leafValues>
            -6.3284808397293091e-01 8.7908066809177399e-02</leafValues></_>
        <_>
          <internalNodes>
            0 -1 24 2.7056769467890263e-03</internalNodes>
          <leafValues>
            8.3804249763488770e-02 -5.5241006612777710e-01</leafValues></_>
        <_>
          <internalNodes>
            0 -1 99 -1.4313572319224477e-04</internalNodes>
          <leafValues>
            3.7074056267738342e-01 -1.6781294345855713e-01</leafValues></_>
        <_>
          <internalNodes>
            0 -1 170 3.1676092185080051e-03</internalNodes>
          <leafValues>
            -1.9477523863315582e-01 2.9256305098533630e-01</leafValues></_>
        <_>
          <internalNodes>
            0 -1 167 -7.1196104399859905e-03</internalNodes>
          <leafValues>
            -9.4177711009979248e-01 6.4105525612831116e-02</leafValues></_>
        <_>
          <internalNodes>
            0 -1 248 -8.4925227565690875e-04</internalNodes>
          <leafValues>
            -8.9574080705642700e-01 4.0044829249382019e-02</leafValues></_>
        <_>
          <internalNodes>
            0 -1 62 -5.8742560213431716e-04</internalNodes>
          <leafValues>
            -6.9847488403320312e-01 5.4906800389289856e-02</leafValues></_>
        <_>
          <internalNodes>
            0 -1 243 -5.0709373317658901e-04</internalNodes>
          <leafValues>
            -5.2469336986541748e-01 9.3483313918113708e-02</leafValues></_>
        <_>
          <internalNodes>
            0 -1 104 3.1344476155936718e-04</internalNodes>
          <leafValues>
            -1.3542199134826660e-01 4.3898776173591614e-01</leafValues></_>
        <_>
          <internalNodes>
            0 -1 179 2.9680652078241110e-03</internalNodes>
          <leafValues>
            -1.1948452144861221e-01 4.7015881538391113e-01</leafValues></_>
        <_>
          <internalNodes>
            0 -1 212 1.6648400924168527e-04</internalNodes>
          <leafValues>
            -1.4606976509094238e-01 3.7793308496475220e-01</leafValues></_>
        <_>
          <internalNodes>
            0 -1 161 2.7596104890108109e-02</internalNodes>
          <leafValues>
            -6.6030794382095337e-01 9.7696028649806976e-02</leafValues></_>
        <_>
          <internalNodes>
            0 -1 211 -8.1971543841063976e-04</internalNodes>
          <leafValues>
            4.5974704623222351e-01 -1.5315555036067963e-01</leafValues></_></weakClassifiers></_>
    <!-- stage 9 -->
    <_>
      <maxWeakCount>27</maxWeakCount>
      <stageThreshold>-1.4287841320037842e+00</stageThreshold>
      <weakClassifiers>
        <_>
          <internalNodes>
            0 -1 195 -2.4446222186088562e-01</internalNodes>
          <leafValues>
            3.6431226134300232e-01 -6.0387986898422241e-01</leafValues></_>
        <_>
          <internalNodes>
            0 -1 36 -7.4049029499292374e-03</internalNodes>
          <leafValues>
            3.7685561180114746e-01 -3.5882160067558289e-01</leafValues></_>
        <_>
          <internalNodes>
            0 -1 164 -1.0469785891473293e-02</internalNodes>
          <leafValues>
            4.4271481037139893e-01 -2.8582632541656494e-01</leafValues></_>
        <_>
          <internalNodes>
            0 -1 202 1.7501050024293363e-04</internalNodes>
          <leafValues>
            1.8215923011302948e-01 -6.2285667657852173e-01</leafValues></_>
        <_>
          <internalNodes>
            0 -1 30 5.6389849632978439e-03</internalNodes>
          <leafValues>
            -2.2620141506195068e-01 4.2236873507499695e-01</leafValues></_>
        <_>
          <internalNodes>
            0 -1 210 2.3096462246030569e-04</internalNodes>
          <leafValues>
            -1.7262640595436096e-01 4.9734917283058167e-01</leafValues></_>
        <_>
          <internalNodes>
            0 -1 44 -2.7342962101101875e-02</internalNodes>
          <leafValues>
            -7.4172681570053101e-01 1.1989068239927292e-01</leafValues></_>
        <_>
          <internalNodes>
            0 -1 250 2.8263672720640898e-04</internalNodes>
          <leafValues>
            -3.2420492172241211e-01 3.4659934043884277e-01</leafValues></_>
        <_>
          <internalNodes>
            0 -1 82 -2.6920344680547714e-02</internalNodes>
          <leafValues>
            1.5169319510459900e-01 -7.0988714694976807e-01</leafValues></_>
        <_>
          <internalNodes>
            0 -1 137 4.9211774021387100e-03</internalNodes>
          <leafValues>
            -3.4829679131507874e-01 2.9828929901123047e-01</leafValues></_>
        <_>
          <internalNodes>
            0 -1 270 -5.7355233002454042e-04</internalNodes>
          <leafValues>
            6.4885044097900391e-01 -1.7944645881652832e-01</leafValues></_>
        <_>
          <internalNodes>
            0 -1 247 3.6137274582870305e-04</internalNodes>
          <leafValues>
            1.5378341078758240e-01 -7.4692356586456299e-01</leafValues></_>
        <_>
          <internalNodes>
            0 -1 58 5.3313712123781443e-04</internalNodes>
          <leafValues>
            1.4331066608428955e-01 -7.5611788034439087e-01</leafValues></_>
        <_>
          <internalNodes>
            0 -1 97 -9.4810733571648598e-03</internalNodes>
          <leafValues>
            5.8811211585998535e-01 -2.3210430145263672e-01</leafValues></_>
        <_>
          <internalNodes>
            0 -1 158 7.6901633292436600e-03</internalNodes>
          <leafValues>
            -1.9509311020374298e-01 5.4708772897720337e-01</leafValues></_>
        <_>
          <internalNodes>
            0 -1 157 -8.0225034616887569e-04</internalNodes>
          <leafValues>
            4.6427160501480103e-01 -2.5274327397346497e-01</leafValues></_>
        <_>
          <internalNodes>
            0 -1 197 -1.4492997433990240e-03</internalNodes>
          <leafValues>
            -4.6713447570800781e-01 2.7000886201858521e-01</leafValues></_>
        <_>
          <internalNodes>
            0 -1 48 4.6737082302570343e-03</internalNodes>
          <leafValues>
            -2.3013967275619507e-01 4.2995730042457581e-01</leafValues></_>
        <_>
          <internalNodes>
            0 -1 177 -1.1039231903851032e-03</internalNodes>
          <leafValues>
            -9.1048702597618103e-02 1.</leafValues></_>
        <_>
          <internalNodes>
            0 -1 207 -2.4548810324631631e-04</internalNodes>
          <leafValues>
            -6.3895452022552490e-01 1.8461494147777557e-01</leafValues></_>
        <_>
          <internalNodes>
            0 -1 159 -4.1595712536945939e-04</internalNodes>
          <leafValues>
            -6.7249053716659546e-01 1.1806523054838181e-01</leafValues></_>
        <_>
          <internalNodes>
            0 -1 199 -6.5019598696380854e-04</internalNodes>
          <leafValues>
            6.0317116975784302e-01 -1.9585338234901428e-01</leafValues></_>
        <_>
          <internalNodes>
            0 -1 172 1.0863859206438065e-02</internalNodes>
          <leafValues>
            -1.7762915790081024e-01 5.1978546380996704e-01</leafValues></_>
        <_>
          <internalNodes>
            0 -1 259 -3.1874098931439221e-04</internalNodes>
          <leafValues>
            -6.2522250413894653e-01 1.5487779676914215e-01</leafValues></_>
        <_>
          <internalNodes>
            0 -1 15 1.0216783732175827e-02</internalNodes>
          <leafValues>
            -2.5236031413078308e-01 5.4336285591125488e-01</leafValues></_>
        <_>
          <internalNodes>
            0 -1 208 3.8494006730616093e-04</internalNodes>
          <leafValues>
            -3.7216329574584961e-01 2.5811758637428284e-01</leafValues></_>
        <_>
          <internalNodes>
            0 -1 71 1.4792177081108093e-01</internalNodes>
          <leafValues>
            -1.8154746294021606e-01 6.2378680706024170e-01</leafValues></_></weakClassifiers></_></stages>
  <features>
    <_>
      <rects>
        <_>
          0 0 3 2 -1.</_>
        <_>
          1 0 1 2 3.</_></rects>
      <tilted>0</tilted></_>
    <_>
      <rects>
        <_>
          0 0 1 6 -1.</_>
        <_>
          0 3 1 3 2.</_></rects>
      <tilted>0</tilted></_>
    <_>
      <rects>
        <_>
          0 0 2 5 -1.</_>
        <_>
          1 0 1 5 2.</_></rects>
      <tilted>0</tilted></_>
    <_>
      <rects>
        <_>
          0 0 3 5 -1.</_>
        <_>
          1 0 1 5 3.</_></rects>
      <tilted>0</tilted></_>
    <_>
      <rects>
        <_>
          0 0 4 1 -1.</_>
        <_>
          2 0 2 1 2.</_></rects>
      <tilted>0</tilted></_>
    <_>
      <rects>
        <_>
          0 0 2 4 -1.</_>
        <_>
          0 2 2 2 2.</_></rects>
      <tilted>0</tilted></_>
    <_>
      <rects>
        <_>
          0 0 4 5 -1.</_>
        <_>
          2 0 2 5 2.</_></rects>
      <tilted>0</tilted></_>
    <_>
      <rects>
        <_>
          0 0 12 9 -1.</_>
        <_>
          4 0 4 9 3.</_></rects>
      <tilted>0</tilted></_>
    <_>
      <rects>
        <_>
          0 0 12 11 -1.</_>
        <_>
          4 0 4 11 3.</_></rects>
      <tilted>0</tilted></_>
    <_>
      <rects>
        <_>
          0 0 15 6 -1.</_>
        <_>
          5 0 5 6 3.</_></rects>
      <tilted>0</tilted></_>
    <_>
      <rects>
        <_>
          0 0 21 2 -1.</_>
        <_>
          7 0 7 2 3.</_></rects>
      <tilted>0</tilted></_>
    <_>
      <rects>
        <_>
          0 1 3 2 -1.</_>
        <_>
          1 1 1 2 3.</_></rects>
      <tilted>0</tilted></_>
    <_>
      <rects>
        <_>
          0 1 2 2 -1.</_>
        <_>
          0 2 2 1 2.</_></rects>
      <tilted>0</tilted></_>
    <_>
      <rects>
        <_>
          0 2 3 1 -1.</_>
        <_>
          1 2 1 1 3.</_></rects>
      <tilted>0</tilted></_>
    <_>
      <rects>
        <_>
          0 2 3 2 -1.</_>
        <_>
          1 2 1 2 3.</_></rects>
      <tilted>0</tilted></_>
    <_>
      <rects>
        <_>
          0 4 21 1 -1.</_>
        <_>
          7 4 7 1 3.</_></rects>
      <tilted>0</tilted></_>
    <_>
      <rects>
        <_>
          0 6 24 12 -1.</_>
        <_>
          0 10 24 4 3.</_></rects>
      <tilted>0</tilted></_>
    <_>
      <rects>
        <_>
          0 8 19 16 -1.</_>
        <_>
          0 16 19 8 2.</_></rects>
      <tilted>0</tilted></_>
    <_>
      <rects>
        <_>
          0 9 14 10 -1.</_>
        <_>
          0 14 14 5 2.</_></rects>
      <tilted>0</tilted></_>
    <_>
      <rects>
        <_>
          0 9 16 10 -1.</_>
        <_>
          0 14 16 5 2.</_></rects>
      <tilted>0</tilted></_>
    <_>
      <rects>
        <_>
          0 10 2 7 -1.</_>
        <_>
          1 10 1 7 2.</_></rects>
      <tilted>0</tilted></_>
    <_>
      <rects>
        <_>
          0 10 4 8 -1.</_>
        <_>
          2 10 2 8 2.</_></rects>
      <tilted>0</tilted></_>
    <_>
      <rects>
        <_>
          0 10 18 2 -1.</_>
        <_>
          6 10 6 2 3.</_></rects>
      <tilted>0</tilted></_>
    <_>
      <rects>
        <_>
          0 11 17 6 -1.</_>
        <_>
          0 14 17 3 2.</_></rects>
      <tilted>0</tilted></_>
    <_>
      <rects>
        <_>
          0 12 3 12 -1.</_>
        <_>
          1 12 1 12 3.</_></rects>
      <tilted>0</tilted></_>
    <_>
      <rects>
        <_>
          0 13 22 2 -1.</_>
        <_>
          0 14 22 1 2.</_></rects>
      <tilted>0</tilted></_>
    <_>
      <rects>
        <_>
          0 14 2 10 -1.</_>
        <_>
          0 19 2 5 2.</_></rects>
      <tilted>0</tilted></_>
    <_>
      <rects>
        <_>
          0 14 20 10 -1.</_>
        <_>
          0 19 20 5 2.</_></rects>
      <tilted>0</tilted></_>
    <_>
      <rects>
        <_>
          0 15 2 2 -1.</_>
        <_>
          0 15 1 1 2.</_>
        <_>
          1 16 1 1 2.</_></rects>
      <tilted>0</tilted></_>
    <_>
      <rects>
        <_>
          0 17 14 2 -1.</_>
        <_>
          0 18 14 1 2.</_></rects>
      <tilted>0</tilted></_>
    <_>
      <rects>
        <_>
          0 18 12 6 -1.</_>
        <_>
          0 18 6 3 2.</_>
        <_>
          6 21 6 3 2.</_></rects>
      <tilted>0</tilted></_>
    <_>
      <rects>
        <_>
          0 21 14 3 -1.</_>
        <_>
          0 22 14 1 3.</_></rects>
      <tilted>0</tilted></_>
    <_>
      <rects>
        <_>
          1 0 2 2 -1.</_>
        <_>
          2 0 1 2 2.</_></rects>
      <tilted>0</tilted></_>
    <_>
      <rects>
        <_>
          1 0 2 5 -1.</_>
        <_>
          2 0 1 5 2.</_></rects>
      <tilted>0</tilted></_>
    <_>
      <rects>
        <_>
          1 0 2 9 -1.</_>
        <_>
          2 0 1 9 2.</_></rects>
      <tilted>0</tilted></_>
    <_>
      <rects>
        <_>
          1 0 15 5 -1.</_>
        <_>
          6 0 5 5 3.</_></rects>
      <tilted>0</tilted></_>
    <_>
      <rects>
        <_>
          1 1 9 6 -1.</_>
        <_>
          4 1 3 6 3.</_></rects>
      <tilted>0</tilted></_>
    <_>
      <rects>
        <_>
          1 2 3 5 -1.</_>
        <_>
          2 2 1 5 3.</_></rects>
      <tilted>0</tilted></_>
    <_>
      <rects>
        <_>
          1 3 2 2 -1.</_>
        <_>
          1 3 1 1 2.</_>
        <_>
          2 4 1 1 2.</_></rects>
      <tilted>0</tilted></_>
    <_>
      <rects>
        <_>
          1 3 6 8 -1.</_>
        <_>
          1 3 3 4 2.</_>
        <_>
          4 7 3 4 2.</_></rects>
      <tilted>0</tilted></_>
    <_>
      <rects>
        <_>
          1 4 10 6 -1.</_>
        <_>
          1 6 10 2 3.</_></rects>
      <tilted>0</tilted></_>
    <_>
      <rects>
        <_>
          1 5 2 2 -1.</_>
        <_>
          1 5 1 1 2.</_>
        <_>
          2 6 1 1 2.</_></rects>
      <tilted>0</tilted></_>
    <_>
      <rects>
        <_>
          1 5 12 10 -1.</_>
        <_>
          1 5 6 5 2.</_>
        <_>
          7 10 6 5 2.</_></rects>
      <tilted>0</tilted></_>
    <_>
      <rects>
        <_>
          1 5 16 6 -1.</_>
        <_>
          1 7 16 2 3.</_></rects>
      <tilted>0</tilted></_>
    <_>
      <rects>
        <_>
          1 7 2 12 -1.</_>
        <_>
          1 11 2 4 3.</_></rects>
      <tilted>0</tilted></_>
    <_>
      <rects>
        <_>
          1 8 8 4 -1.</_>
        <_>
          1 8 4 2 2.</_>
        <_>
          5 10 4 2 2.</_></rects>
      <tilted>0</tilted></_>
    <_>
      <rects>
        <_>
          1 10 6 10 -1.</_>
        <_>
          3 10 2 10 3.</_></rects>
      <tilted>0</tilted></_>
    <_>
      <rects>
        <_>
          1 10 21 14 -1.</_>
        <_>
          8 10 7 14 3.</_></rects>
      <tilted>0</tilted></_>
    <_>
      <rects>
        <_>
          1 12 18 2 -1.</_>
        <_>
          1 12 9 1 2.</_>
        <_>
          10 13 9 1 2.</_></rects>
      <tilted>0</tilted></_>
    <_>
      <rects>
        <_>
          1 13 17 3 -1.</_>
        <_>
          1 14 17 1 3.</_></rects>
      <tilted>0</tilted></_>
    <_>
      <rects>
        <_>
          1 18 4 6 -1.</_>
        <_>
          1 18 2 3 2.</_>
        <_>
          3 21 2 3 2.</_></rects>
      <tilted>0</tilted></_>
    <_>
      <rects>
        <_>
          1 18 6 6 -1.</_>
        <_>
          3 18 2 6 3.</_></rects>
      <tilted>0</tilted></_>
    <_>
      <rects>
        <_>
          1 19 12 5 -1.</_>
        <_>
          5 19 4 5 3.</_></rects>
      <tilted>0</tilted></_>
    <_>
      <rects>
        <_>
          1 20 6 3 -1.</_>
        <_>
          4 20 3 3 2.</_></rects>
      <tilted>0</tilted></_>
    <_>
      <rects>
        <_>
          1 23 8 1 -1.</_>
        <_>
          5 23 4 1 2.</_></rects>
      <tilted>0</tilted></_>
    <_>
      <rects>
        <_>
          2 0 2 2 -1.</_>
        <_>
          2 1 2 1 2.</_></rects>
      <tilted>0</tilted></_>
    <_>
      <rects>
        <_>
          2 1 3 2 -1.</_>
        <_>
          2 2 3 1 2.</_></rects>
      <tilted>0</tilted></_>
    <_>
      <rects>
        <_>
          2 16 6 3 -1.</_>
        <_>
          2 17 6 1 3.</_></rects>
      <tilted>0</tilted></_>
    <_>
      <rects>
        <_>
          2 20 3 1 -1.</_>
        <_>
          3 20 1 1 3.</_></rects>
      <tilted>0</tilted></_>
    <_>
      <rects>
        <_>
          2 22 2 2 -1.</_>
        <_>
          2 22 1 1 2.</_>
        <_>
          3 23 1 1 2.</_></rects>
      <tilted>0</tilted></_>
    <_>
      <rects>
        <_>
          2 22 6 2 -1.</_>
        <_>
          4 22 2 2 3.</_></rects>
      <tilted>0</tilted></_>
    <_>
      <rects>
        <_>
          3 1 3 1 -1.</_>
        <_>
          4 1 1 1 3.</_></rects>
      <tilted>0</tilted></_>
    <_>
      <rects>
        <_>
          3 3 3 1 -1.</_>
        <_>
          4 3 1 1 3.</_></rects>
      <tilted>0</tilted></_>
    <_>
      <rects>
        <_>
          3 6 16 1 -1.</_>
        <_>
          11 6 8 1 2.</_></rects>
      <tilted>0</tilted></_>
    <_>
      <rects>
        <_>
          3 7 1 12 -1.</_>
        <_>
          3 11 1 4 3.</_></rects>
      <tilted>0</tilted></_>
    <_>
      <rects>
        <_>
          3 13 9 2 -1.</_>
        <_>
          6 13 3 2 3.</_></rects>
      <tilted>0</tilted></_>
    <_>
      <rects>
        <_>
          3 15 6 6 -1.</_>
        <_>
          5 15 2 6 3.</_></rects>
      <tilted>0</tilted></_>
    <_>
      <rects>
        <_>
          3 16 3 2 -1.</_>
        <_>
          3 17 3 1 2.</_></rects>
      <tilted>0</tilted></_>
    <_>
      <rects>
        <_>
          3 18 12 6 -1.</_>
        <_>
          3 21 12 3 2.</_></rects>
      <tilted>0</tilted></_>
    <_>
      <rects>
        <_>
          3 21 1 3 -1.</_>
        <_>
          3 22 1 1 3.</_></rects>
      <tilted>0</tilted></_>
    <_>
      <rects>
        <_>
          4 0 19 22 -1.</_>
        <_>
          4 11 19 11 2.</_></rects>
      <tilted>0</tilted></_>
    <_>
      <rects>
        <_>
          4 6 5 18 -1.</_>
        <_>
          4 15 5 9 2.</_></rects>
      <tilted>0</tilted></_>
    <_>
      <rects>
        <_>
          4 10 16 14 -1.</_>
        <_>
          4 17 16 7 2.</_></rects>
      <tilted>0</tilted></_>
    <_>
      <rects>
        <_>
          4 10 18 12 -1.</_>
        <_>
          4 16 18 6 2.</_></rects>
      <tilted>0</tilted></_>
    <_>
      <rects>
        <_>
          4 16 1 3 -1.</_>
        <_>
          4 17 1 1 3.</_></rects>
      <tilted>0</tilted></_>
    <_>
      <rects>
        <_>
          4 18 14 4 -1.</_>
        <_>
          4 20 14 2 2.</_></rects>
      <tilted>0</tilted></_>
    <_>
      <rects>
        <_>
          4 20 11 4 -1.</_>
        <_>
          4 22 11 2 2.</_></rects>
      <tilted>0</tilted></_>
    <_>
      <rects>
        <_>
          4 22 2 2 -1.</_>
        <_>
          5 22 1 2 2.</_></rects>
      <tilted>0</tilted></_>
    <_>
      <rects>
        <_>
          5 0 16 16 -1.</_>
        <_>
          13 0 8 16 2.</_></rects>
      <tilted>0</tilted></_>
    <_>
      <rects>
        <_>
          5 0 18 17 -1.</_>
        <_>
          14 0 9 17 2.</_></rects>
      <tilted>0</tilted></_>
    <_>
      <rects>
        <_>
          5 1 3 1 -1.</_>
        <_>
          6 1 1 1 3.</_></rects>
      <tilted>0</tilted></_>
    <_>
      <rects>
        <_>
          5 3 3 1 -1.</_>
        <_>
          6 3 1 1 3.</_></rects>
      <tilted>0</tilted></_>
    <_>
      <rects>
        <_>
          5 4 19 10 -1.</_>
        <_>
          5 9 19 5 2.</_></rects>
      <tilted>0</tilted></_>
    <_>
      <rects>
        <_>
          5 6 3 1 -1.</_>
        <_>
          6 6 1 1 3.</_></rects>
      <tilted>0</tilted></_>
    <_>
      <rects>
        <_>
          5 9 17 14 -1.</_>
        <_>
          5 16 17 7 2.</_></rects>
      <tilted>0</tilted></_>
    <_>
      <rects>
        <_>
          5 11 3 4 -1.</_>
        <_>
          5 13 3 2 2.</_></rects>
      <tilted>0</tilted></_>
    <_>
      <rects>
        <_>
          5 13 2 2 -1.</_>
        <_>
          5 13 1 1 2.</_>
        <_>
          6 14 1 1 2.</_></rects>
      <tilted>0</tilted></_>
    <_>
      <rects>
        <_>
          5 15 4 8 -1.</_>
        <_>
          5 15 2 4 2.</_>
        <_>
          7 19 2 4 2.</_></rects>
      <tilted>0</tilted></_>
    <_>
      <rects>
        <_>
          5 17 11 3 -1.</_>
        <_>
          5 18 11 1 3.</_></rects>
      <tilted>0</tilted></_>
    <_>
      <rects>
        <_>
          5 21 1 3 -1.</_>
        <_>
          5 22 1 1 3.</_></rects>
      <tilted>0</tilted></_>
    <_>
      <rects>
        <_>
          6 0 2 2 -1.</_>
        <_>
          6 0 1 1 2.</_>
        <_>
          7 1 1 1 2.</_></rects>
      <tilted>0</tilted></_>
    <_>
      <rects>
        <_>
          6 3 3 2 -1.</_>
        <_>
          7 3 1 2 3.</_></rects>
      <tilted>0</tilted></_>
    <_>
      <rects>
        <_>
          6 3 6 20 -1.</_>
        <_>
          8 3 2 20 3.</_></rects>
      <tilted>0</tilted></_>
    <_>
      <rects>
        <_>
          6 10 15 10 -1.</_>
        <_>
          6 15 15 5 2.</_></rects>
      <tilted>0</tilted></_>
    <_>
      <rects>
        <_>
          6 11 11 2 -1.</_>
        <_>
          6 12 11 1 2.</_></rects>
      <tilted>0</tilted></_>
    <_>
      <rects>
        <_>
          6 12 3 1 -1.</_>
        <_>
          7 12 1 1 3.</_></rects>
      <tilted>0</tilted></_>
    <_>
      <rects>
        <_>
          6 12 5 6 -1.</_>
        <_>
          6 14 5 2 3.</_></rects>
      <tilted>0</tilted></_>
    <_>
      <rects>
        <_>
          6 13 12 2 -1.</_>
        <_>
          10 13 4 2 3.</_></rects>
      <tilted>0</tilted></_>
    <_>
      <rects>
        <_>
          6 15 7 3 -1.</_>
        <_>
          6 16 7 1 3.</_></rects>
      <tilted>0</tilted></_>
    <_>
      <rects>
        <_>
          6 18 3 1 -1.</_>
        <_>
          7 18 1 1 3.</_></rects>
      <tilted>0</tilted></_>
    <_>
      <rects>
        <_>
          6 19 3 2 -1.</_>
        <_>
          7 19 1 2 3.</_></rects>
      <tilted>0</tilted></_>
    <_>
      <rects>
        <_>
          6 21 1 3 -1.</_>
        <_>
          6 22 1 1 3.</_></rects>
      <tilted>0</tilted></_>
    <_>
      <rects>
        <_>
          6 22 3 2 -1.</_>
        <_>
          7 22 1 2 3.</_></rects>
      <tilted>0</tilted></_>
    <_>
      <rects>
        <_>
          6 23 3 1 -1.</_>
        <_>
          7 23 1 1 3.</_></rects>
      <tilted>0</tilted></_>
    <_>
      <rects>
        <_>
          7 0 2 2 -1.</_>
        <_>
          7 0 1 1 2.</_>
        <_>
          8 1 1 1 2.</_></rects>
      <tilted>0</tilted></_>
    <_>
      <rects>
        <_>
          7 1 2 4 -1.</_>
        <_>
          7 1 1 2 2.</_>
        <_>
          8 3 1 2 2.</_></rects>
      <tilted>0</tilted></_>
    <_>
      <rects>
        <_>
          7 2 13 18 -1.</_>
        <_>
          7 8 13 6 3.</_></rects>
      <tilted>0</tilted></_>
    <_>
      <rects>
        <_>
          7 3 2 3 -1.</_>
        <_>
          8 3 1 3 2.</_></rects>
      <tilted>0</tilted></_>
    <_>
      <rects>
        <_>
          7 3 15 4 -1.</_>
        <_>
          12 3 5 4 3.</_></rects>
      <tilted>0</tilted></_>
    <_>
      <rects>
        <_>
          7 3 15 18 -1.</_>
        <_>
          7 9 15 6 3.</_></rects>
      <tilted>0</tilted></_>
    <_>
      <rects>
        <_>
          7 6 2 8 -1.</_>
        <_>
          7 6 1 4 2.</_>
        <_>
          8 10 1 4 2.</_></rects>
      <tilted>0</tilted></_>
    <_>
      <rects>
        <_>
          7 6 4 1 -1.</_>
        <_>
          9 6 2 1 2.</_></rects>
      <tilted>0</tilted></_>
    <_>
      <rects>
        <_>
          7 9 2 1 -1.</_>
        <_>
          8 9 1 1 2.</_></rects>
      <tilted>0</tilted></_>
    <_>
      <rects>
        <_>
          7 10 2 2 -1.</_>
        <_>
          7 10 1 1 2.</_>
        <_>
          8 11 1 1 2.</_></rects>
      <tilted>0</tilted></_>
    <_>
      <rects>
        <_>
          7 10 3 2 -1.</_>
        <_>
          8 10 1 2 3.</_></rects>
      <tilted>0</tilted></_>
    <_>
      <rects>
        <_>
          7 10 2 6 -1.</_>
        <_>
          7 13 2 3 2.</_></rects>
      <tilted>0</tilted></_>
    <_>
      <rects>
        <_>
          7 10 4 2 -1.</_>
        <_>
          7 11 4 1 2.</_></rects>
      <tilted>0</tilted></_>
    <_>
      <rects>
        <_>
          7 11 1 2 -1.</_>
        <_>
          7 12 1 1 2.</_></rects>
      <tilted>0</tilted></_>
    <_>
      <rects>
        <_>
          7 11 2 6 -1.</_>
        <_>
          7 11 1 3 2.</_>
        <_>
          8 14 1 3 2.</_></rects>
      <tilted>0</tilted></_>
    <_>
      <rects>
        <_>
          7 12 1 4 -1.</_>
        <_>
          7 14 1 2 2.</_></rects>
      <tilted>0</tilted></_>
    <_>
      <rects>
        <_>
          7 12 9 1 -1.</_>
        <_>
          10 12 3 1 3.</_></rects>
      <tilted>0</tilted></_>
    <_>
      <rects>
        <_>
          7 15 3 1 -1.</_>
        <_>
          8 15 1 1 3.</_></rects>
      <tilted>0</tilted></_>
    <_>
      <rects>
        <_>
          7 15 3 2 -1.</_>
        <_>
          8 15 1 2 3.</_></rects>
      <tilted>0</tilted></_>
    <_>
      <rects>
        <_>
          7 19 2 2 -1.</_>
        <_>
          7 19 1 1 2.</_>
        <_>
          8 20 1 1 2.</_></rects>
      <tilted>0</tilted></_>
    <_>
      <rects>
        <_>
          7 22 3 2 -1.</_>
        <_>
          8 22 1 2 3.</_></rects>
      <tilted>0</tilted></_>
    <_>
      <rects>
        <_>
          8 0 3 2 -1.</_>
        <_>
          8 1 3 1 2.</_></rects>
      <tilted>0</tilted></_>
    <_>
      <rects>
        <_>
          8 0 15 7 -1.</_>
        <_>
          13 0 5 7 3.</_></rects>
      <tilted>0</tilted></_>
    <_>
      <rects>
        <_>
          8 1 10 3 -1.</_>
        <_>
          8 2 10 1 3.</_></rects>
      <tilted>0</tilted></_>
    <_>
      <rects>
        <_>
          8 2 3 1 -1.</_>
        <_>
          9 2 1 1 3.</_></rects>
      <tilted>0</tilted></_>
    <_>
      <rects>
        <_>
          8 2 14 17 -1.</_>
        <_>
          15 2 7 17 2.</_></rects>
      <tilted>0</tilted></_>
    <_>
      <rects>
        <_>
          8 3 3 1 -1.</_>
        <_>
          9 3 1 1 3.</_></rects>
      <tilted>0</tilted></_>
    <_>
      <rects>
        <_>
          8 3 12 11 -1.</_>
        <_>
          14 3 6 11 2.</_></rects>
      <tilted>0</tilted></_>
    <_>
      <rects>
        <_>
          8 4 2 1 -1.</_>
        <_>
          9 4 1 1 2.</_></rects>
      <tilted>0</tilted></_>
    <_>
      <rects>
        <_>
          8 4 3 1 -1.</_>
        <_>
          9 4 1 1 3.</_></rects>
      <tilted>0</tilted></_>
    <_>
      <rects>
        <_>
          8 4 10 15 -1.</_>
        <_>
          8 9 10 5 3.</_></rects>
      <tilted>0</tilted></_>
    <_>
      <rects>
        <_>
          8 5 2 2 -1.</_>
        <_>
          8 5 1 1 2.</_>
        <_>
          9 6 1 1 2.</_></rects>
      <tilted>0</tilted></_>
    <_>
      <rects>
        <_>
          8 5 1 6 -1.</_>
        <_>
          8 8 1 3 2.</_></rects>
      <tilted>0</tilted></_>
    <_>
      <rects>
        <_>
          8 5 12 3 -1.</_>
        <_>
          12 5 4 3 3.</_></rects>
      <tilted>0</tilted></_>
    <_>
      <rects>
        <_>
          8 5 11 15 -1.</_>
        <_>
          8 10 11 5 3.</_></rects>
      <tilted>0</tilted></_>
    <_>
      <rects>
        <_>
          8 5 12 12 -1.</_>
        <_>
          8 9 12 4 3.</_></rects>
      <tilted>0</tilted></_>
    <_>
      <rects>
        <_>
          8 6 3 1 -1.</_>
        <_>
          9 6 1 1 3.</_></rects>
      <tilted>0</tilted></_>
    <_>
      <rects>
        <_>
          8 6 11 12 -1.</_>
        <_>
          8 10 11 4 3.</_></rects>
      <tilted>0</tilted></_>
    <_>
      <rects>
        <_>
          8 7 4 1 -1.</_>
        <_>
          10 7 2 1 2.</_></rects>
      <tilted>0</tilted></_>
    <_>
      <rects>
        <_>
          8 9 3 1 -1.</_>
        <_>
          9 9 1 1 3.</_></rects>
      <tilted>0</tilted></_>
    <_>
      <rects>
        <_>
          8 9 13 14 -1.</_>
        <_>
          8 16 13 7 2.</_></rects>
      <tilted>0</tilted></_>
    <_>
      <rects>
        <_>
          8 10 13 14 -1.</_>
        <_>
          8 17 13 7 2.</_></rects>
      <tilted>0</tilted></_>
    <_>
      <rects>
        <_>
          8 12 3 1 -1.</_>
        <_>
          9 12 1 1 3.</_></rects>
      <tilted>0</tilted></_>
    <_>
      <rects>
        <_>
          8 12 9 7 -1.</_>
        <_>
          11 12 3 7 3.</_></rects>
      <tilted>0</tilted></_>
    <_>
      <rects>
        <_>
          8 12 12 6 -1.</_>
        <_>
          8 15 12 3 2.</_></rects>
      <tilted>0</tilted></_>
    <_>
      <rects>
        <_>
          8 16 10 8 -1.</_>
        <_>
          8 20 10 4 2.</_></rects>
      <tilted>0</tilted></_>
    <_>
      <rects>
        <_>
          8 17 3 2 -1.</_>
        <_>
          9 17 1 2 3.</_></rects>
      <tilted>0</tilted></_>
    <_>
      <rects>
        <_>
          8 18 3 1 -1.</_>
        <_>
          9 18 1 1 3.</_></rects>
      <tilted>0</tilted></_>
    <_>
      <rects>
        <_>
          8 18 3 6 -1.</_>
        <_>
          9 18 1 6 3.</_></rects>
      <tilted>0</tilted></_>
    <_>
      <rects>
        <_>
          8 18 4 6 -1.</_>
        <_>
          8 18 2 3 2.</_>
        <_>
          10 21 2 3 2.</_></rects>
      <tilted>0</tilted></_>
    <_>
      <rects>
        <_>
          8 19 3 1 -1.</_>
        <_>
          9 19 1 1 3.</_></rects>
      <tilted>0</tilted></_>
    <_>
      <rects>
        <_>
          8 20 3 1 -1.</_>
        <_>
          9 20 1 1 3.</_></rects>
      <tilted>0</tilted></_>
    <_>
      <rects>
        <_>
          8 22 3 2 -1.</_>
        <_>
          9 22 1 2 3.</_></rects>
      <tilted>0</tilted></_>
    <_>
      <rects>
        <_>
          9 0 9 2 -1.</_>
        <_>
          9 1 9 1 2.</_></rects>
      <tilted>0</tilted></_>
    <_>
      <rects>
        <_>
          9 0 10 6 -1.</_>
        <_>
          9 2 10 2 3.</_></rects>
      <tilted>0</tilted></_>
    <_>
      <rects>
        <_>
          9 1 3 1 -1.</_>
        <_>
          10 1 1 1 3.</_></rects>
      <tilted>0</tilted></_>
    <_>
      <rects>
        <_>
          9 2 2 9 -1.</_>
        <_>
          10 2 1 9 2.</_></rects>
      <tilted>0</tilted></_>
    <_>
      <rects>
        <_>
          9 2 15 22 -1.</_>
        <_>
          9 13 15 11 2.</_></rects>
      <tilted>0</tilted></_>
    <_>
      <rects>
        <_>
          9 6 2 1 -1.</_>
        <_>
          10 6 1 1 2.</_></rects>
      <tilted>0</tilted></_>
    <_>
      <rects>
        <_>
          9 6 10 12 -1.</_>
        <_>
          9 10 10 4 3.</_></rects>
      <tilted>0</tilted></_>
    <_>
      <rects>
        <_>
          9 10 9 3 -1.</_>
        <_>
          9 11 9 1 3.</_></rects>
      <tilted>0</tilted></_>
    <_>
      <rects>
        <_>
          9 11 1 2 -1.</_>
        <_>
          9 12 1 1 2.</_></rects>
      <tilted>0</tilted></_>
    <_>
      <rects>
        <_>
          9 12 1 2 -1.</_>
        <_>
          9 13 1 1 2.</_></rects>
      <tilted>0</tilted></_>
    <_>
      <rects>
        <_>
          9 12 2 6 -1.</_>
        <_>
          9 14 2 2 3.</_></rects>
      <tilted>0</tilted></_>
    <_>
      <rects>
        <_>
          9 12 8 2 -1.</_>
        <_>
          9 13 8 1 2.</_></rects>
      <tilted>0</tilted></_>
    <_>
      <rects>
        <_>
          9 13 6 1 -1.</_>
        <_>
          11 13 2 1 3.</_></rects>
      <tilted>0</tilted></_>
    <_>
      <rects>
        <_>
          9 15 14 3 -1.</_>
        <_>
          9 16 14 1 3.</_></rects>
      <tilted>0</tilted></_>
    <_>
      <rects>
        <_>
          9 18 6 4 -1.</_>
        <_>
          11 18 2 4 3.</_></rects>
      <tilted>0</tilted></_>
    <_>
      <rects>
        <_>
          10 1 8 9 -1.</_>
        <_>
          14 1 4 9 2.</_></rects>
      <tilted>0</tilted></_>
    <_>
      <rects>
        <_>
          10 1 8 3 -1.</_>
        <_>
          10 2 8 1 3.</_></rects>
      <tilted>0</tilted></_>
    <_>
      <rects>
        <_>
          10 2 14 8 -1.</_>
        <_>
          17 2 7 8 2.</_></rects>
      <tilted>0</tilted></_>
    <_>
      <rects>
        <_>
          10 6 12 12 -1.</_>
        <_>
          10 10 12 4 3.</_></rects>
      <tilted>0</tilted></_>
    <_>
      <rects>
        <_>
          10 7 4 9 -1.</_>
        <_>
          10 10 4 3 3.</_></rects>
      <tilted>0</tilted></_>
    <_>
      <rects>
        <_>
          10 9 4 6 -1.</_>
        <_>
          10 11 4 2 3.</_></rects>
      <tilted>0</tilted></_>
    <_>
      <rects>
        <_>
          10 13 1 2 -1.</_>
        <_>
          10 14 1 1 2.</_></rects>
      <tilted>0</tilted></_>
    <_>
      <rects>
        <_>
          11 4 4 3 -1.</_>
        <_>
          13 4 2 3 2.</_></rects>
      <tilted>0</tilted></_>
    <_>
      <rects>
        <_>
          11 5 2 2 -1.</_>
        <_>
          11 5 1 1 2.</_>
        <_>
          12 6 1 1 2.</_></rects>
      <tilted>0</tilted></_>
    <_>
      <rects>
        <_>
          11 7 2 6 -1.</_>
        <_>
          11 10 2 3 2.</_></rects>
      <tilted>0</tilted></_>
    <_>
      <rects>
        <_>
          11 9 1 2 -1.</_>
        <_>
          11 10 1 1 2.</_></rects>
      <tilted>0</tilted></_>
    <_>
      <rects>
        <_>
          11 10 6 3 -1.</_>
        <_>
          11 11 6 1 3.</_></rects>
      <tilted>0</tilted></_>
    <_>
      <rects>
        <_>
          11 11 2 2 -1.</_>
        <_>
          11 12 2 1 2.</_></rects>
      <tilted>0</tilted></_>
    <_>
      <rects>
        <_>
          11 15 13 3 -1.</_>
        <_>
          11 16 13 1 3.</_></rects>
      <tilted>0</tilted></_>
    <_>
      <rects>
        <_>
          11 22 2 2 -1.</_>
        <_>
          11 22 1 1 2.</_>
        <_>
          12 23 1 1 2.</_></rects>
      <tilted>0</tilted></_>
    <_>
      <rects>
        <_>
          12 4 12 9 -1.</_>
        <_>
          12 7 12 3 3.</_></rects>
      <tilted>0</tilted></_>
    <_>
      <rects>
        <_>
          12 12 2 2 -1.</_>
        <_>
          12 13 2 1 2.</_></rects>
      <tilted>0</tilted></_>
    <_>
      <rects>
        <_>
          12 16 12 2 -1.</_>
        <_>
          12 16 6 1 2.</_>
        <_>
          18 17 6 1 2.</_></rects>
      <tilted>0</tilted></_>
    <_>
      <rects>
        <_>
          12 21 2 2 -1.</_>
        <_>
          12 21 1 1 2.</_>
        <_>
          13 22 1 1 2.</_></rects>
      <tilted>0</tilted></_>
    <_>
      <rects>
        <_>
          12 22 12 2 -1.</_>
        <_>
          16 22 4 2 3.</_></rects>
      <tilted>0</tilted></_>
    <_>
      <rects>
        <_>
          13 0 3 1 -1.</_>
        <_>
          14 0 1 1 3.</_></rects>
      <tilted>0</tilted></_>
    <_>
      <rects>
        <_>
          13 0 3 2 -1.</_>
        <_>
          13 1 3 1 2.</_></rects>
      <tilted>0</tilted></_>
    <_>
      <rects>
        <_>
          13 2 3 1 -1.</_>
        <_>
          14 2 1 1 3.</_></rects>
      <tilted>0</tilted></_>
    <_>
      <rects>
        <_>
          13 2 5 21 -1.</_>
        <_>
          13 9 5 7 3.</_></rects>
      <tilted>0</tilted></_>
    <_>
      <rects>
        <_>
          13 3 3 1 -1.</_>
        <_>
          14 3 1 1 3.</_></rects>
      <tilted>0</tilted></_>
    <_>
      <rects>
        <_>
          13 4 3 17 -1.</_>
        <_>
          14 4 1 17 3.</_></rects>
      <tilted>0</tilted></_>
    <_>
      <rects>
        <_>
          13 5 6 1 -1.</_>
        <_>
          16 5 3 1 2.</_></rects>
      <tilted>0</tilted></_>
    <_>
      <rects>
        <_>
          13 6 2 2 -1.</_>
        <_>
          14 6 1 2 2.</_></rects>
      <tilted>0</tilted></_>
    <_>
      <rects>
        <_>
          13 10 4 4 -1.</_>
        <_>
          13 12 4 2 2.</_></rects>
      <tilted>0</tilted></_>
    <_>
      <rects>
        <_>
          13 16 3 1 -1.</_>
        <_>
          14 16 1 1 3.</_></rects>
      <tilted>0</tilted></_>
    <_>
      <rects>
        <_>
          13 17 3 1 -1.</_>
        <_>
          14 17 1 1 3.</_></rects>
      <tilted>0</tilted></_>
    <_>
      <rects>
        <_>
          13 17 6 3 -1.</_>
        <_>
          13 18 6 1 3.</_></rects>
      <tilted>0</tilted></_>
    <_>
      <rects>
        <_>
          13 21 3 1 -1.</_>
        <_>
          14 21 1 1 3.</_></rects>
      <tilted>0</tilted></_>
    <_>
      <rects>
        <_>
          14 1 6 4 -1.</_>
        <_>
          14 1 3 2 2.</_>
        <_>
          17 3 3 2 2.</_></rects>
      <tilted>0</tilted></_>
    <_>
      <rects>
        <_>
          14 4 9 3 -1.</_>
        <_>
          14 5 9 1 3.</_></rects>
      <tilted>0</tilted></_>
    <_>
      <rects>
        <_>
          14 5 2 2 -1.</_>
        <_>
          14 5 1 1 2.</_>
        <_>
          15 6 1 1 2.</_></rects>
      <tilted>0</tilted></_>
    <_>
      <rects>
        <_>
          14 6 1 6 -1.</_>
        <_>
          14 8 1 2 3.</_></rects>
      <tilted>0</tilted></_>
    <_>
      <rects>
        <_>
          14 8 3 1 -1.</_>
        <_>
          15 8 1 1 3.</_></rects>
      <tilted>0</tilted></_>
    <_>
      <rects>
        <_>
          14 9 3 1 -1.</_>
        <_>
          15 9 1 1 3.</_></rects>
      <tilted>0</tilted></_>
    <_>
      <rects>
        <_>
          14 14 3 5 -1.</_>
        <_>
          15 14 1 5 3.</_></rects>
      <tilted>0</tilted></_>
    <_>
      <rects>
        <_>
          14 16 3 1 -1.</_>
        <_>
          15 16 1 1 3.</_></rects>
      <tilted>0</tilted></_>
    <_>
      <rects>
        <_>
          14 16 2 2 -1.</_>
        <_>
          14 16 1 1 2.</_>
        <_>
          15 17 1 1 2.</_></rects>
      <tilted>0</tilted></_>
    <_>
      <rects>
        <_>
          14 17 2 2 -1.</_>
        <_>
          14 17 1 1 2.</_>
        <_>
          15 18 1 1 2.</_></rects>
      <tilted>0</tilted></_>
    <_>
      <rects>
        <_>
          14 17 3 2 -1.</_>
        <_>
          15 17 1 2 3.</_></rects>
      <tilted>0</tilted></_>
    <_>
      <rects>
        <_>
          14 21 2 2 -1.</_>
        <_>
          14 21 1 1 2.</_>
        <_>
          15 22 1 1 2.</_></rects>
      <tilted>0</tilted></_>
    <_>
      <rects>
        <_>
          15 0 2 2 -1.</_>
        <_>
          15 0 1 1 2.</_>
        <_>
          16 1 1 1 2.</_></rects>
      <tilted>0</tilted></_>
    <_>
      <rects>
        <_>
          15 4 2 2 -1.</_>
        <_>
          16 4 1 2 2.</_></rects>
      <tilted>0</tilted></_>
    <_>
      <rects>
        <_>
          15 5 2 1 -1.</_>
        <_>
          16 5 1 1 2.</_></rects>
      <tilted>0</tilted></_>
    <_>
      <rects>
        <_>
          15 9 6 4 -1.</_>
        <_>
          15 9 3 2 2.</_>
        <_>
          18 11 3 2 2.</_></rects>
      <tilted>0</tilted></_>
    <_>
      <rects>
        <_>
          15 14 2 1 -1.</_>
        <_>
          16 14 1 1 2.</_></rects>
      <tilted>0</tilted></_>
    <_>
      <rects>
        <_>
          15 14 3 1 -1.</_>
        <_>
          16 14 1 1 3.</_></rects>
      <tilted>0</tilted></_>
    <_>
      <rects>
        <_>
          15 15 3 1 -1.</_>
        <_>
          16 15 1 1 3.</_></rects>
      <tilted>0</tilted></_>
    <_>
      <rects>
        <_>
          15 15 3 3 -1.</_>
        <_>
          16 15 1 3 3.</_></rects>
      <tilted>0</tilted></_>
    <_>
      <rects>
        <_>
          15 20 2 4 -1.</_>
        <_>
          15 20 1 2 2.</_>
        <_>
          16 22 1 2 2.</_></rects>
      <tilted>0</tilted></_>
    <_>
      <rects>
        <_>
          15 20 9 2 -1.</_>
        <_>
          18 20 3 2 3.</_></rects>
      <tilted>0</tilted></_>
    <_>
      <rects>
        <_>
          15 22 2 2 -1.</_>
        <_>
          15 22 1 1 2.</_>
        <_>
          16 23 1 1 2.</_></rects>
      <tilted>0</tilted></_>
    <_>
      <rects>
        <_>
          15 22 9 2 -1.</_>
        <_>
          15 23 9 1 2.</_></rects>
      <tilted>0</tilted></_>
    <_>
      <rects>
        <_>
          16 1 8 18 -1.</_>
        <_>
          16 1 4 9 2.</_>
        <_>
          20 10 4 9 2.</_></rects>
      <tilted>0</tilted></_>
    <_>
      <rects>
        <_>
          16 2 3 1 -1.</_>
        <_>
          17 2 1 1 3.</_></rects>
      <tilted>0</tilted></_>
    <_>
      <rects>
        <_>
          16 10 3 13 -1.</_>
        <_>
          17 10 1 13 3.</_></rects>
      <tilted>0</tilted></_>
    <_>
      <rects>
        <_>
          16 10 8 2 -1.</_>
        <_>
          16 10 4 1 2.</_>
        <_>
          20 11 4 1 2.</_></rects>
      <tilted>0</tilted></_>
    <_>
      <rects>
        <_>
          16 11 6 8 -1.</_>
        <_>
          19 11 3 8 2.</_></rects>
      <tilted>0</tilted></_>
    <_>
      <rects>
        <_>
          16 20 8 4 -1.</_>
        <_>
          16 22 8 2 2.</_></rects>
      <tilted>0</tilted></_>
    <_>
      <rects>
        <_>
          17 0 3 17 -1.</_>
        <_>
          18 0 1 17 3.</_></rects>
      <tilted>0</tilted></_>
    <_>
      <rects>
        <_>
          17 10 6 8 -1.</_>
        <_>
          20 10 3 8 2.</_></rects>
      <tilted>0</tilted></_>
    <_>
      <rects>
        <_>
          17 20 6 4 -1.</_>
        <_>
          17 22 6 2 2.</_></rects>
      <tilted>0</tilted></_>
    <_>
      <rects>
        <_>
          17 21 6 2 -1.</_>
        <_>
          19 21 2 2 3.</_></rects>
      <tilted>0</tilted></_>
    <_>
      <rects>
        <_>
          18 3 2 2 -1.</_>
        <_>
          18 3 1 1 2.</_>
        <_>
          19 4 1 1 2.</_></rects>
      <tilted>0</tilted></_>
    <_>
      <rects>
        <_>
          18 4 6 1 -1.</_>
        <_>
          21 4 3 1 2.</_></rects>
      <tilted>0</tilted></_>
    <_>
      <rects>
        <_>
          18 6 2 1 -1.</_>
        <_>
          19 6 1 1 2.</_></rects>
      <tilted>0</tilted></_>
    <_>
      <rects>
        <_>
          18 13 2 1 -1.</_>
        <_>
          19 13 1 1 2.</_></rects>
      <tilted>0</tilted></_>
    <_>
      <rects>
        <_>
          18 18 3 4 -1.</_>
        <_>
          19 18 1 4 3.</_></rects>
      <tilted>0</tilted></_>
    <_>
      <rects>
        <_>
          18 19 2 2 -1.</_>
        <_>
          18 19 1 1 2.</_>
        <_>
          19 20 1 1 2.</_></rects>
      <tilted>0</tilted></_>
    <_>
      <rects>
        <_>
          19 2 2 16 -1.</_>
        <_>
          19 2 1 8 2.</_>
        <_>
          20 10 1 8 2.</_></rects>
      <tilted>0</tilted></_>
    <_>
      <rects>
        <_>
          19 2 4 14 -1.</_>
        <_>
          19 2 2 7 2.</_>
        <_>
          21 9 2 7 2.</_></rects>
      <tilted>0</tilted></_>
    <_>
      <rects>
        <_>
          19 4 2 2 -1.</_>
        <_>
          19 4 1 1 2.</_>
        <_>
          20 5 1 1 2.</_></rects>
      <tilted>0</tilted></_>
    <_>
      <rects>
        <_>
          19 5 2 2 -1.</_>
        <_>
          19 5 1 1 2.</_>
        <_>
          20 6 1 1 2.</_></rects>
      <tilted>0</tilted></_>
    <_>
      <rects>
        <_>
          19 11 4 5 -1.</_>
        <_>
          21 11 2 5 2.</_></rects>
      <tilted>0</tilted></_>
    <_>
      <rects>
        <_>
          19 12 2 1 -1.</_>
        <_>
          20 12 1 1 2.</_></rects>
      <tilted>0</tilted></_>
    <_>
      <rects>
        <_>
          19 16 1 3 -1.</_>
        <_>
          19 17 1 1 3.</_></rects>
      <tilted>0</tilted></_>
    <_>
      <rects>
        <_>
          19 20 3 1 -1.</_>
        <_>
          20 20 1 1 3.</_></rects>
      <tilted>0</tilted></_>
    <_>
      <rects>
        <_>
          20 0 4 16 -1.</_>
        <_>
          20 0 2 8 2.</_>
        <_>
          22 8 2 8 2.</_></rects>
      <tilted>0</tilted></_>
    <_>
      <rects>
        <_>
          20 0 3 9 -1.</_>
        <_>
          20 3 3 3 3.</_></rects>
      <tilted>0</tilted></_>
    <_>
      <rects>
        <_>
          20 6 2 2 -1.</_>
        <_>
          20 6 1 1 2.</_>
        <_>
          21 7 1 1 2.</_></rects>
      <tilted>0</tilted></_>
    <_>
      <rects>
        <_>
          20 19 2 2 -1.</_>
        <_>
          20 19 1 1 2.</_>
        <_>
          21 20 1 1 2.</_></rects>
      <tilted>0</tilted></_>
    <_>
      <rects>
        <_>
          20 21 2 2 -1.</_>
        <_>
          20 21 1 1 2.</_>
        <_>
          21 22 1 1 2.</_></rects>
      <tilted>0</tilted></_>
    <_>
      <rects>
        <_>
          20 22 2 2 -1.</_>
        <_>
          20 22 1 1 2.</_>
        <_>
          21 23 1 1 2.</_></rects>
      <tilted>0</tilted></_>
    <_>
      <rects>
        <_>
          21 1 3 1 -1.</_>
        <_>
          22 1 1 1 3.</_></rects>
      <tilted>0</tilted></_>
    <_>
      <rects>
        <_>
          21 1 2 2 -1.</_>
        <_>
          22 1 1 2 2.</_></rects>
      <tilted>0</tilted></_>
    <_>
      <rects>
        <_>
          21 1 3 2 -1.</_>
        <_>
          22 1 1 2 3.</_></rects>
      <tilted>0</tilted></_>
    <_>
      <rects>
        <_>
          21 3 3 1 -1.</_>
        <_>
          22 3 1 1 3.</_></rects>
      <tilted>0</tilted></_>
    <_>
      <rects>
        <_>
          21 12 3 4 -1.</_>
        <_>
          22 12 1 4 3.</_></rects>
      <tilted>0</tilted></_>
    <_>
      <rects>
        <_>
          21 22 2 2 -1.</_>
        <_>
          21 22 1 1 2.</_>
        <_>
          22 23 1 1 2.</_></rects>
      <tilted>0</tilted></_>
    <_>
      <rects>
        <_>
          22 2 1 22 -1.</_>
        <_>
          22 13 1 11 2.</_></rects>
      <tilted>0</tilted></_>
    <_>
      <rects>
        <_>
          22 3 2 2 -1.</_>
        <_>
          22 3 1 1 2.</_>
        <_>
          23 4 1 1 2.</_></rects>
      <tilted>0</tilted></_>
    <_>
      <rects>
        <_>
          22 4 2 2 -1.</_>
        <_>
          22 4 1 1 2.</_>
        <_>
          23 5 1 1 2.</_></rects>
      <tilted>0</tilted></_>
    <_>
      <rects>
        <_>
          22 7 2 16 -1.</_>
        <_>
          22 7 1 8 2.</_>
        <_>
          23 15 1 8 2.</_></rects>
      <tilted>0</tilted></_>
    <_>
      <rects>
        <_>
          22 10 2 6 -1.</_>
        <_>
          22 12 2 2 3.</_></rects>
      <tilted>0</tilted></_>
    <_>
      <rects>
        <_>
          22 14 2 4 -1.</_>
        <_>
          22 14 1 2 2.</_>
        <_>
          23 16 1 2 2.</_></rects>
      <tilted>0</tilted></_>
    <_>
      <rects>
        <_>
          22 22 2 2 -1.</_>
        <_>
          22 22 1 1 2.</_>
        <_>
          23 23 1 1 2.</_></rects>
      <tilted>0</tilted></_>
    <_>
      <rects>
        <_>
          23 4 1 9 -1.</_>
        <_>
          23 7 1 3 3.</_></rects>
      <tilted>0</tilted></_>
    <_>
      <rects>
        <_>
          23 12 1 6 -1.</_>
        <_>
          23 15 1 3 2.</_></rects>
      <tilted>0</tilted></_></features></cascade>
</opencv_storage>
